{"learner":{"attributes":{"scikit_learn":"{\"_estimator_type\": \"classifier\"}"},"feature_names":["Unnamed: 0","SBol_Vend","Prom_Pagado","Sum_Pagado","%_Promo","Prom_Horas_Ant","total_viajes_cliente","periodo_dias_cliente","dias_entre_viajes","Venta_Ant","Recencia","Tipo_TARJETA","Tipo_DISCAPACIDAD","Tipo_ESTUDIANTE","Tipo_MENOR","Tipo_PETFRIENDLY","Tipo_PROFESOR","Tipo_PROMOCION ESPECIAL","Tipo_SENECTUD","Tipo_ETN","Tipo_TURISTAR"],"feature_types":["int","float","float","float","float","float","int","int","float","float","int","int","int","int","int","int","int","int","int","int","int"],"gradient_booster":{"model":{"gbtree_model_param":{"num_parallel_tree":"1","num_trees":"500"},"iteration_indptr":[0,5,10,15,20,25,30,35,40,45,50,55,60,65,70,75,80,85,90,95,100,105,110,115,120,125,130,135,140,145,150,155,160,165,170,175,180,185,190,195,200,205,210,215,220,225,230,235,240,245,250,255,260,265,270,275,280,285,290,295,300,305,310,315,320,325,330,335,340,345,350,355,360,365,370,375,380,385,390,395,400,405,410,415,420,425,430,435,440,445,450,455,460,465,470,475,480,485,490,495,500],"tree_info":[0,1,2,3,4,0,1,2,3,4,0,1,2,3,4,0,1,2,3,4,0,1,2,3,4,0,1,2,3,4,0,1,2,3,4,0,1,2,3,4,0,1,2,3,4,0,1,2,3,4,0,1,2,3,4,0,1,2,3,4,0,1,2,3,4,0,1,2,3,4,0,1,2,3,4,0,1,2,3,4,0,1,2,3,4,0,1,2,3,4,0,1,2,3,4,0,1,2,3,4,0,1,2,3,4,0,1,2,3,4,0,1,2,3,4,0,1,2,3,4,0,1,2,3,4,0,1,2,3,4,0,1,2,3,4,0,1,2,3,4,0,1,2,3,4,0,1,2,3,4,0,1,2,3,4,0,1,2,3,4,0,1,2,3,4,0,1,2,3,4,0,1,2,3,4,0,1,2,3,4,0,1,2,3,4,0,1,2,3,4,0,1,2,3,4,0,1,2,3,4,0,1,2,3,4,0,1,2,3,4,0,1,2,3,4,0,1,2,3,4,0,1,2,3,4,0,1,2,3,4,0,1,2,3,4,0,1,2,3,4,0,1,2,3,4,0,1,2,3,4,0,1,2,3,4,0,1,2,3,4,0,1,2,3,4,0,1,2,3,4,0,1,2,3,4,0,1,2,3,4,0,1,2,3,4,0,1,2,3,4,0,1,2,3,4,0,1,2,3,4,0,1,2,3,4,0,1,2,3,4,0,1,2,3,4,0,1,2,3,4,0,1,2,3,4,0,1,2,3,4,0,1,2,3,4,0,1,2,3,4,0,1,2,3,4,0,1,2,3,4,0,1,2,3,4,0,1,2,3,4,0,1,2,3,4,0,1,2,3,4,0,1,2,3,4,0,1,2,3,4,0,1,2,3,4,0,1,2,3,4,0,1,2,3,4,0,1,2,3,4,0,1,2,3,4,0,1,2,3,4,0,1,2,3,4,0,1,2,3,4,0,1,2,3,4,0,1,2,3,4,0,1,2,3,4,0,1,2,3,4,0,1,2,3,4,0,1,2,3,4,0,1,2,3,4,0,1,2,3,4,0,1,2,3,4,0,1,2,3,4,0,1,2,3,4,0,1,2,3,4,0,1,2,3,4,0,1,2,3,4,0,1,2,3,4,0,1,2,3,4],"trees":[{"base_weights":[-3.9859095E-1,-1.8749583E-1,2.4334607E0,1.2608598E0,2.4945679E0,3.8565627E-1,2.0918589E0,2.8767124E-1,7.4854577E-1,-1.3787282E-1,7.096774E-1,2.3333333E0,2.6936024E-1,-3.8101184E-1,1.8159204E0,7.308347E-1,1.5051903E0,7.988165E-1,-3.594771E-1,-1.610815E-1,9.105431E-2,1.849315E-1,6.2745094E-1,5.7883817E-1,-1.2328767E-1,3.5714287E-1,3.3707865E-2,2.6315792E-2,-1.4876033E-1],"categories":[],"categories_nodes":[],"categories_segments":[],"categories_sizes":[],"default_left":[0,0,0,0,0,0,0,0,0,0,0,0,0,0,0,0,0,0,0,0,0,0,0,0,0,0,0,0,0],"id":0,"left_children":[1,-1,3,5,7,9,11,-1,-1,13,-1,15,17,19,21,-1,23,25,27,-1,-1,-1,-1,-1,-1,-1,-1,-1,-1],"loss_changes":[3.104633E4,0E0,2.536914E2,1.2978607E2,6.660156E-1,9.224773E1,3.980664E1,0E0,0E0,3.4457973E1,0E0,3.2278137E0,4.2425065E0,6.9983234E0,1.3683949E0,0E0,1.0190804E1,1.6837149E0,4.1677696E-1,0E0,0E0,0E0,0E0,0E0,0E0,0E0,0E0,0E0,0E0],"parents":[2147483647,0,0,2,2,3,3,4,4,5,5,6,6,9,9,11,11,12,12,13,13,14,14,16,16,17,17,18,18],"right_children":[2,-1,4,6,8,10,12,-1,-1,14,-1,16,18,20,22,-1,24,26,28,-1,-1,-1,-1,-1,-1,-1,-1,-1,-1],"split_conditions":[1E0,-1.8749583E-1,1.8181819E-1,3E0,1.5E0,1E0,7.91E2,2.8767124E-1,7.4854577E-1,5.89E2,7.096774E-1,7E0,1.70629E5,1.64E2,1.15E2,7.308347E-1,6.4E1,9.1E2,5E0,-1.610815E-1,9.105431E-2,1.849315E-1,6.2745094E-1,5.7883817E-1,-1.2328767E-1,3.5714287E-1,3.3707865E-2,2.6315792E-2,-1.4876033E-1],"split_indices":[18,0,9,1,5,11,7,0,0,7,0,1,0,7,10,0,8,7,1,0,0,0,0,0,0,0,0,0,0],"split_type":[0,0,0,0,0,0,0,0,0,0,0,0,0,0,0,0,0,0,0,0,0,0,0,0,0,0,0,0,0],"sum_hessian":[4.8418562E4,4.4835203E4,3.5833604E3,1.7856001E2,3.4048003E3,8.768001E1,9.0880005E1,1.9200001E0,3.4028801E3,7.008E1,1.76E1,8.000001E1,1.0880001E1,6.3040005E1,7.0400004E0,6.944E1,1.056E1,5.76E0,5.1200004E0,5.1520004E1,1.152E1,1.9200001E0,5.1200004E0,8.64E0,1.9200001E0,3.2000003E0,2.5600002E0,1.2800001E0,3.8400002E0],"tree_param":{"num_deleted":"0","num_feature":"21","num_nodes":"29","size_leaf_vector":"1"}},{"base_weights":[-3.1174588E-1,3.0311513E-1,-6.1716014E-1,-3.7425563E-1,1.9625697E0,-6.214709E-1,-4.8202124E-1,-6.2262106E-1,5.976997E-1,2.330301E0,-5.467963E-1,-6.2369955E-1,-5.808725E-1,-2.4011147E-1,-1.8720348E-1,-1.8747903E-1,-4.818639E-1,-5.7412E-2,1.6546681E0,1.8199643E0,2.4700336E0,4.5454544E-1,-6.0439557E-1,-1.8743786E-1,-6.117578E-1,7.109004E-2,-5.906949E-1,9.253499E-1,-5.420875E-1,-6.133829E-1,1.0655737E0,6.474652E-1,-4.5168293E-1,2.0595558E0,-1.8611193E-1,1.3297397E0,2.4441092E0,2.2575831E0,2.4865947E0,-2.8028932E-1,1.7845117E0,-3.610771E-1,-6.1819273E-1,-5.2792764E-1,-1.8649049E-1,1.2033194E0,-1.76259E-1,-4.9653098E-1,-1.8589225E-1,1.2908391E0,-1.7557251E-1,-6.102522E-1,-2.1072796E-1,-1.8614718E-1,2.6315792E-2,-2.4793388E-2,4.8086122E-1,-1.5757161E-1,3.3324313E-1,-1.697878E-1,-1.10977795E-2,2.2351883E-1,6.8506795E-1,6.0080107E-2,5.4502726E-1,7.3695856E-1,3.8235295E-1,7.054632E-1,3.846154E-1,2.8767124E-1,7.461796E-1,-1.4516129E-1,1.858407E-1,1.15384616E-1,5.8949417E-1,-1.6019417E-1,2.231405E-1,-1.8601583E-1,-2.0547945E-2,2.3809524E-2,-1.8671045E-1,-1.2962963E-1,5.27027E-1,1.2034739E-1,-1.8694678E-1,1.16740085E-1,5.801105E-1,-1.8423235E-1,-1.0344827E-1,3.0960855E-1,-1.6158247E-1],"categories":[],"categories_nodes":[],"categories_segments":[],"categories_sizes":[],"default_left":[0,0,0,0,0,0,0,0,0,0,0,0,0,0,0,0,0,0,0,0,0,0,0,0,0,0,0,0,0,0,0,0,0,0,0,0,0,0,0,0,0,0,0,0,0,0,0,0,0,0,0,0,0,0,0,0,0,0,0,0,0,0,0,0,0,0,0,0,0,0,0,0,0,0,0,0,0,0,0,0,0,0,0,0,0,0,0,0,0,0,0],"id":1,"left_children":[1,3,5,7,9,11,13,15,17,19,21,23,25,27,-1,-1,29,31,33,35,37,39,41,-1,43,45,47,49,51,53,55,57,59,61,-1,63,65,67,69,71,73,75,77,79,-1,81,-1,83,-1,85,-1,87,89,-1,-1,-1,-1,-1,-1,-1,-1,-1,-1,-1,-1,-1,-1,-1,-1,-1,-1,-1,-1,-1,-1,-1,-1,-1,-1,-1,-1,-1,-1,-1,-1,-1,-1,-1,-1,-1,-1],"loss_changes":[9.092766E3,1.8064252E4,1.8546875E1,2.755356E3,4.2998066E3,2.475586E0,3.435431E1,2.6533203E0,1.6087815E3,2.852461E2,3.4661453E1,4.8828125E-3,1.0581482E1,1.3183208E2,0E0,0E0,3.1401012E1,3.9916373E2,8.201682E2,2.6513574E2,5.5996094E0,3.275126E1,1.6708679E0,0E0,1.774231E0,1.9588337E1,4.1119385E0,4.335588E1,6.57975E0,7.514839E-1,7.659068E0,2.805478E2,4.3624634E1,2.2058618E2,0E0,2.7108643E2,2.456787E0,1.910498E1,6.328125E-1,4.351558E0,2.245575E0,6.640277E0,5.019989E-1,1.57801895E1,0E0,9.484268E0,0E0,4.415834E1,0E0,3.544229E1,0E0,3.9787292E-2,2.1826065E1,0E0,0E0,0E0,0E0,0E0,0E0,0E0,0E0,0E0,0E0,0E0,0E0,0E0,0E0,0E0,0E0,0E0,0E0,0E0,0E0,0E0,0E0,0E0,0E0,0E0,0E0,0E0,0E0,0E0,0E0,0E0,0E0,0E0,0E0,0E0,0E0,0E0,0E0],"parents":[2147483647,0,0,1,1,2,2,3,3,4,4,5,5,6,6,7,7,8,8,9,9,10,10,11,11,12,12,13,13,16,16,17,17,18,18,19,19,20,20,21,21,22,22,24,24,25,25,26,26,27,27,28,28,29,29,30,30,31,31,32,32,33,33,35,35,36,36,37,37,38,38,39,39,40,40,41,41,42,42,43,43,45,45,47,47,49,49,51,51,52,52],"right_children":[2,4,6,8,10,12,14,16,18,20,22,24,26,28,-1,-1,30,32,34,36,38,40,42,-1,44,46,48,50,52,54,56,58,60,62,-1,64,66,68,70,72,74,76,78,80,-1,82,-1,84,-1,86,-1,88,90,-1,-1,-1,-1,-1,-1,-1,-1,-1,-1,-1,-1,-1,-1,-1,-1,-1,-1,-1,-1,-1,-1,-1,-1,-1,-1,-1,-1,-1,-1,-1,-1,-1,-1,-1,-1,-1,-1],"split_conditions":[1E0,4E0,8.31E2,3E0,1E0,6.55E2,1E0,8.22E2,2.54E2,2.8E1,1.8181819E-1,4.26E2,2E0,6.666667E-1,-1.8720348E-1,-1.8747903E-1,1E0,3.94E2,1E0,5E0,9.9E1,7.18E2,5E-1,-1.8743786E-1,6.25E0,1E0,5E-1,1E0,1.776E4,3.64E2,3.875E0,1E0,1E0,1E0,-1.8611193E-1,1E0,1E0,1E0,7.7155E2,8E0,7.1551E2,4.96552E3,9.1E1,1E0,-1.8649049E-1,4E0,-1.76259E-1,1E0,-1.8589225E-1,5.1750103E3,-1.7557251E-1,1E0,7.8571427E-1,-1.8614718E-1,2.6315792E-2,-2.4793388E-2,4.8086122E-1,-1.5757161E-1,3.3324313E-1,-1.697878E-1,-1.10977795E-2,2.2351883E-1,6.8506795E-1,6.0080107E-2,5.4502726E-1,7.3695856E-1,3.8235295E-1,7.054632E-1,3.846154E-1,2.8767124E-1,7.461796E-1,-1.4516129E-1,1.858407E-1,1.15384616E-1,5.8949417E-1,-1.6019417E-1,2.231405E-1,-1.8601583E-1,-2.0547945E-2,2.3809524E-2,-1.8671045E-1,-1.2962963E-1,5.27027E-1,1.2034739E-1,-1.8694678E-1,1.16740085E-1,5.801105E-1,-1.8423235E-1,-1.0344827E-1,3.0960855E-1,-1.6158247E-1],"split_indices":[11,1,7,1,18,7,17,7,7,7,9,7,5,9,0,0,17,10,18,1,7,7,9,0,5,17,9,18,3,5,5,19,17,19,0,19,20,14,3,1,3,3,1,17,0,1,0,17,0,3,0,14,9,0,0,0,0,0,0,0,0,0,0,0,0,0,0,0,0,0,0,0,0,0,0,0,0,0,0,0,0,0,0,0,0,0,0,0,0,0,0],"split_type":[0,0,0,0,0,0,0,0,0,0,0,0,0,0,0,0,0,0,0,0,0,0,0,0,0,0,0,0,0,0,0,0,0,0,0,0,0,0,0,0,0,0,0,0,0,0,0,0,0,0,0,0,0,0,0,0,0,0,0,0,0,0,0,0,0,0,0,0,0,0,0,0,0,0,0,0,0,0,0,0,0,0,0,0,0,0,0,0,0,0,0],"sum_hessian":[4.8418562E4,1.6068801E4,3.2349762E4,1.14115205E4,4.6572803E3,3.1346242E4,1.0035201E3,9.08928E3,2.3222402E3,4.0620803E3,5.952E2,2.9701441E4,1.6448002E3,3.7216003E2,6.3136005E2,8.9392E3,1.5008002E2,1.4342401E3,8.8800006E2,8.7616003E2,3.1859202E3,3.2000004E1,5.632E2,2.7163201E4,2.5382402E3,2.4320002E1,1.6204801E3,7.616E1,2.9600003E2,1.3888E2,1.1200001E1,5.1424005E2,9.2000006E2,7.5392004E2,1.3408002E2,4.9248004E2,3.8368002E2,2.4032002E2,2.9456E3,2.112E1,1.0880001E1,3.1680002E1,5.3152E2,2.7328003E2,2.2649602E3,8.64E0,1.5680001E1,3.8528003E2,1.2352001E3,6.1440002E1,1.4720001E1,2.4480002E2,5.1200005E1,1.376E2,1.2800001E0,3.8400002E0,7.3600006E0,1.456E2,3.6864E2,7.2096E2,1.9904001E2,1.1040001E2,6.4352E2,1.488E2,3.4368002E2,3.7856003E2,5.1200004E0,2.1792001E2,2.2400002E1,1.9200001E0,2.9436802E3,1.76E1,3.5200002E0,1.6000001E0,9.280001E0,2.7840002E1,3.8400002E0,5.2960004E2,1.9200001E0,3.6800003E1,2.3648001E2,2.2400002E0,6.4000006E0,4.7360004E1,3.3792E2,2.6240002E1,3.52E1,2.4000002E2,4.8E0,1.0240001E1,4.0960003E1],"tree_param":{"num_deleted":"0","num_feature":"21","num_nodes":"91","size_leaf_vector":"1"}},{"base_weights":[6.841945E-1,-1.874927E-1,2.1655862E0,-3.9991447E-1,7.499627E-1,2.2767697E-1,-4.9245805E-1,-5.6412846E-1,9.211986E-1,-1.8733968E-1,-3.5349002E-1,-1.8418187E-1,8.196721E-2,1.7589633E0,-4.6993575E-1,5.6434286E-1,-5.5953264E-1,2.586207E-1,-1.6216215E-1,2.785888E-1,7.1037906E-1,1.3953489E-1,-1.612803E-1,-1.8449712E-1,3.2217574E-1,-1.8597816E-1,-1.0133901E-1],"categories":[],"categories_nodes":[],"categories_segments":[],"categories_sizes":[],"default_left":[0,0,0,0,0,0,0,0,0,0,0,0,0,0,0,0,0,0,0,0,0,0,0,0,0,0,0],"id":2,"left_children":[1,-1,3,5,-1,7,9,11,13,-1,15,-1,17,19,21,23,25,-1,-1,-1,-1,-1,-1,-1,-1,-1,-1],"loss_changes":[9.390596E4,0E0,1.9482562E4,1.5225507E2,0E0,1.8575363E2,4.1664917E1,5.1390495E0,2.1083951E2,0E0,2.1110081E2,0E0,6.390539E0,5.477719E1,4.5853395E0,1.2376112E2,1.1987152E1,0E0,0E0,0E0,0E0,0E0,0E0,0E0,0E0,0E0,0E0],"parents":[2147483647,0,0,2,2,3,3,5,5,6,6,7,7,8,8,10,10,12,12,13,13,14,14,15,15,16,16],"right_children":[2,-1,4,6,-1,8,10,12,14,-1,16,-1,18,20,22,24,26,-1,-1,-1,-1,-1,-1,-1,-1,-1,-1],"split_conditions":[1E0,-1.874927E-1,1E0,5E-1,7.499627E-1,9.0909094E-1,3E0,6.25E-1,5E0,-1.8733968E-1,2.3E1,-1.8418187E-1,2.85E3,4.49E2,2.85E3,6.4E-1,1E0,2.586207E-1,-1.6216215E-1,2.785888E-1,7.1037906E-1,1.3953489E-1,-1.612803E-1,-1.8449712E-1,3.2217574E-1,-1.8597816E-1,-1.0133901E-1],"split_indices":[17,0,11,8,0,9,1,9,1,0,7,0,3,10,3,9,9,0,0,0,0,0,0,0,0,0,0],"split_type":[0,0,0,0,0,0,0,0,0,0,0,0,0,0,0,0,0,0,0,0,0,0,0,0,0,0,0],"sum_hessian":[4.8418562E4,2.5703682E4,2.271488E4,2.6185603E3,2.0096322E4,3.3632004E2,2.2822402E3,1.5712001E2,1.7920001E2,1.1686401E3,1.1136001E3,1.4592001E2,1.1200001E1,1.1168001E2,6.7520004E1,2.0384001E2,9.097601E2,4.8E0,6.4000006E0,4.8320004E1,6.3360004E1,4.1600003E0,6.3360004E1,6.1440002E1,1.4240001E2,7.1360004E2,1.9616002E2],"tree_param":{"num_deleted":"0","num_feature":"21","num_nodes":"27","size_leaf_vector":"1"}},{"base_weights":[4.10867E-2,6.296985E-1,-1.8749174E-1,-1.8746376E-1,2.00675E0,2.4675407E0,-1.8739736E-1,2.480917E0,1.8822734E0,2.3267527E0,7.497199E-1,5.381166E-1,2.3491917E0,7.161979E-1,3.4422657E-1,3.341658E-1,-1.4102563E-1,7.382579E-1,5.552486E-1],"categories":[],"categories_nodes":[],"categories_segments":[],"categories_sizes":[],"default_left":[0,0,0,0,0,0,0,0,0,0,0,0,0,0,0,0,0,0,0],"id":3,"left_children":[1,3,-1,-1,5,7,-1,9,11,13,-1,15,17,-1,-1,-1,-1,-1,-1],"loss_changes":[1.8983297E4,4.4409133E4,0E0,0E0,1.4860398E4,7.696875E1,0E0,2.2703125E1,1.4758014E2,7.498584E1,0E0,3.6769543E1,5.2244873E0,0E0,0E0,0E0,0E0,0E0,0E0],"parents":[2147483647,0,0,1,1,4,4,5,5,7,7,8,8,9,9,11,11,12,12],"right_children":[2,4,-1,-1,6,8,-1,10,12,14,-1,16,18,-1,-1,-1,-1,-1,-1],"split_conditions":[1E0,1E0,-1.8749174E-1,-1.8746376E-1,1E0,8.31E2,-1.8739736E-1,5E-1,6.666667E-1,6.42E2,7.497199E-1,8.58879E3,1.776E4,7.161979E-1,3.4422657E-1,3.341658E-1,-1.4102563E-1,7.382579E-1,5.552486E-1],"split_indices":[17,11,0,0,18,7,0,9,9,7,0,3,3,0,0,0,0,0,0],"split_type":[0,0,0,0,0,0,0,0,0,0,0,0,0,0,0,0,0,0,0],"sum_hessian":[4.8418562E4,2.5703682E4,2.271488E4,1.3450241E4,1.225344E4,1.04275205E4,1.8259202E3,1.019136E4,2.3616002E2,1.08704E3,9.10432E3,6.1440002E1,1.7472002E2,1.0329601E3,5.4080006E1,3.904E1,2.2400002E1,1.3952E2,3.52E1],"tree_param":{"num_deleted":"0","num_feature":"21","num_nodes":"19","size_leaf_vector":"1"}},{"base_weights":[-1.4944373E-2,1.2079802E0,-6.22415E-1,2.2363667E0,-1.3139422E-1,-4.5327753E-1,-6.2314874E-1,7.4914753E-1,-3.9285886E-1,6.7001253E-1,-5.310544E-1,-5.6589144E-1,5.1948047E-1,-6.239986E-1,-5.7941E-1,1.986494E0,-6.1751074E-1,1.1742088E0,-3.9294305E-1,-2.798114E-1,-6.104135E-1,-5.951203E-1,-9.2165895E-2,9.8901093E-1,-1.5328467E-1,-6.003159E-1,-1.8738657E-1,-3.8200337E-1,-1.8713313E-1,2.2267332E0,-1.7412935E-1,2.8248586E-2,-1.8684563E-1,1.4787666E0,-1.8668179E-1,6.963249E-1,-5.667389E-1,2.3174073E-1,-4.9814087E-1,-5.17695E-1,-6.1893576E-1,-1.8335035E-1,-8.264463E-2,3.305785E-1,-1.4876033E-1,1.658031E0,-1.4285713E-1,-1.8591203E-1,-5.0883204E-1,7.425742E-1,-6.0851926E-1,7.1287125E-1,4.2651758E-1,1.849315E-1,-1.5686274E-1,-1.4285713E-1,1.7010309E-1,5.683084E-1,8.7581255E-2,5.347432E-1,5.5658626E-3,-1.8470111E-1,3.5551503E-2,2.60662E-1,-1.7408907E-1,-1.6729107E-1,1.18452854E-1,-1.6743284E-1,-2.255639E-2,-1.8595117E-1,-1.2352941E-1,-1.3483146E-1,1.5789473E-1,2.8767124E-1,-1.2328767E-1,6.335404E-1,-1.05263166E-1,-1.6941571E-1,1.12033196E-1,6.7219913E-1,-1.7128028E-1,-1.8557335E-1,2.6315792E-2],"categories":[],"categories_nodes":[],"categories_segments":[],"categories_sizes":[],"default_left":[0,0,0,0,0,0,0,0,0,0,0,0,0,0,0,0,0,0,0,0,0,0,0,0,0,0,0,0,0,0,0,0,0,0,0,0,0,0,0,0,0,0,0,0,0,0,0,0,0,0,0,0,0,0,0,0,0,0,0,0,0,0,0,0,0,0,0,0,0,0,0,0,0,0,0,0,0,0,0,0,0,0,0],"id":4,"left_children":[1,3,5,7,9,11,13,-1,15,17,19,21,23,25,27,29,31,33,35,37,39,41,43,45,-1,47,-1,49,-1,51,53,55,-1,57,-1,59,61,63,65,67,69,-1,71,73,-1,75,-1,-1,77,79,81,-1,-1,-1,-1,-1,-1,-1,-1,-1,-1,-1,-1,-1,-1,-1,-1,-1,-1,-1,-1,-1,-1,-1,-1,-1,-1,-1,-1,-1,-1,-1,-1],"loss_changes":[3.59712E4,2.2134752E4,3.7324219E0,6.234008E3,2.236149E3,1.600288E1,8.3496094E-1,0E0,4.401582E2,1.2455743E3,9.270801E1,1.73135E0,7.9561305E0,9.082031E-2,5.2609253E0,3.728296E1,2.592041E0,8.632229E2,1.4203659E2,1.2520923E2,2.4760742E0,9.4721985E-1,1.6452756E0,1.1493862E1,0E0,1.1669006E0,0E0,3.0459618E1,0E0,4.3289795E0,2.5390105E0,2.1941538E0,0E0,6.6427515E2,0E0,7.6086266E1,2.1726624E1,1.7419754E2,4.194348E1,5.395378E0,3.4924316E-1,0E0,1.3176223E0,2.6491566E0,0E0,7.7783985E0,0E0,0E0,7.69186E0,4.1027893E1,7.447777E-1,0E0,0E0,0E0,0E0,0E0,0E0,0E0,0E0,0E0,0E0,0E0,0E0,0E0,0E0,0E0,0E0,0E0,0E0,0E0,0E0,0E0,0E0,0E0,0E0,0E0,0E0,0E0,0E0,0E0,0E0,0E0,0E0],"parents":[2147483647,0,0,1,1,2,2,3,3,4,4,5,5,6,6,8,8,9,9,10,10,11,11,12,12,13,13,14,14,15,15,16,16,17,17,18,18,19,19,20,20,21,21,22,22,23,23,25,25,27,27,29,29,30,30,31,31,33,33,35,35,36,36,37,37,38,38,39,39,40,40,42,42,43,43,45,45,48,48,49,49,50,50],"right_children":[2,4,6,8,10,12,14,-1,16,18,20,22,24,26,28,30,32,34,36,38,40,42,44,46,-1,48,-1,50,-1,52,54,56,-1,58,-1,60,62,64,66,68,70,-1,72,74,-1,76,-1,-1,78,80,82,-1,-1,-1,-1,-1,-1,-1,-1,-1,-1,-1,-1,-1,-1,-1,-1,-1,-1,-1,-1,-1,-1,-1,-1,-1,-1,-1,-1,-1,-1,-1,-1],"split_conditions":[1E0,3E0,6.666667E-1,1E0,4E0,1.14655E3,1E0,7.4914753E-1,7.692308E-2,3.29E2,7.1E1,1.09052E3,3E0,1.75E0,7.692308E-2,5.89E2,3.875E0,1E0,1E0,1E0,1.51E2,1E0,2.26034E3,1E0,-1.5328467E-1,5.0333332E1,-1.8738657E-1,1E0,-1.8713313E-1,1.64E2,1.15E2,5.5862E2,-1.8684563E-1,1E0,-1.8668179E-1,1.635E2,4.89E2,5E0,1E0,1E0,1E0,-1.8335035E-1,3.9008502E2,1E0,-1.4876033E-1,7.692308E-2,-1.4285713E-1,-1.8591203E-1,1.0862051E3,3E0,4.67E2,7.1287125E-1,4.2651758E-1,1.849315E-1,-1.5686274E-1,-1.4285713E-1,1.7010309E-1,5.683084E-1,8.7581255E-2,5.347432E-1,5.5658626E-3,-1.8470111E-1,3.5551503E-2,2.60662E-1,-1.7408907E-1,-1.6729107E-1,1.18452854E-1,-1.6743284E-1,-2.255639E-2,-1.8595117E-1,-1.2352941E-1,-1.3483146E-1,1.5789473E-1,2.8767124E-1,-1.2328767E-1,6.335404E-1,-1.05263166E-1,-1.6941571E-1,1.12033196E-1,6.7219913E-1,-1.7128028E-1,-1.8557335E-1,2.6315792E-2],"split_indices":[11,1,5,18,1,2,14,0,9,7,7,2,1,5,9,7,5,18,19,19,7,14,3,19,0,8,0,19,0,7,10,2,0,17,0,8,10,1,14,14,20,0,2,19,0,9,0,0,2,1,7,0,0,0,0,0,0,0,0,0,0,0,0,0,0,0,0,0,0,0,0,0,0,0,0,0,0,0,0,0,0,0,0],"split_type":[0,0,0,0,0,0,0,0,0,0,0,0,0,0,0,0,0,0,0,0,0,0,0,0,0,0,0,0,0,0,0,0,0,0,0,0,0,0,0,0,0,0,0,0,0,0,0,0,0,0,0,0,0,0,0,0,0,0,0,0,0,0,0,0,0,0,0,0,0,0,0,0,0,0,0,0,0,0,0,0,0,0,0],"sum_hessian":[4.8418562E4,1.6068801E4,3.2349762E4,9.08928E3,6.9795205E3,1.4240001E2,3.2207361E4,8.26912E3,8.2016003E2,2.3222402E3,4.6572803E3,1.2800002E2,1.4400001E1,3.1580482E4,6.2688007E2,7.008E1,7.500801E2,1.5750402E3,7.472001E2,1.11904E3,3.5382402E3,1.2032001E2,7.6800003E0,9.920001E0,4.4800005E0,8.3456006E2,3.0745922E4,1.1680001E2,5.1008005E2,6.3040005E1,7.0400004E0,6.0800004E0,7.4400006E2,1.3468801E3,2.2816002E2,1.0240001E2,6.4480005E2,3.3472003E2,7.8432007E2,3.0304E2,3.2352002E3,1.1648001E2,3.8400002E0,3.8400002E0,3.8400002E0,6.7200003E0,3.2000003E0,6.8384E2,1.5072002E2,1.92E1,9.7600006E1,5.1520004E1,1.152E1,1.9200001E0,5.1200004E0,3.2000003E0,2.88E0,9.9712006E2,3.4976E2,3.872E1,6.3680004E1,6.0192004E2,4.2880005E1,1.8752002E2,1.4720001E2,7.3568005E2,4.8640003E1,2.7744003E2,2.5600002E1,3.2192002E3,1.6000002E1,2.5600002E0,1.2800001E0,1.9200001E0,1.9200001E0,5.4400005E0,1.2800001E0,1.4208002E2,8.64E0,8.64E0,1.056E1,9.632001E1,1.2800001E0],"tree_param":{"num_deleted":"0","num_feature":"21","num_nodes":"83","size_leaf_vector":"1"}},{"base_weights":[-3.5513365E-1,-1.7710909E-1,1.2654802E0,8.06144E-1,3.8553995E-1,3.0250832E-1,1.158686E0,-9.775344E-2,3.8005584E-1,1.247129E0,2.2110426E-1,-4.1014016E-1,8.9838374E-1,3.807295E-1,5.4099077E-1,5.901178E-1,-3.214804E-1,8.047494E-2,-1.6165178E-1,-1.5301323E-1,4.141985E-1,3.494128E-2,2.416733E-1,6.381167E-2,3.0507606E-1,3.8102876E-2,-1.4077963E-1],"categories":[],"categories_nodes":[],"categories_segments":[],"categories_sizes":[],"default_left":[0,0,0,0,0,0,0,0,0,0,0,0,0,0,0,0,0,0,0,0,0,0,0,0,0,0,0],"id":5,"left_children":[1,-1,3,5,-1,7,9,11,-1,13,15,17,19,-1,21,23,25,-1,-1,-1,-1,-1,-1,-1,-1,-1,-1],"loss_changes":[1.5854909E4,0E0,4.655371E1,3.8530136E1,0E0,3.545023E1,1.0376404E1,2.0783447E1,0E0,1.1311646E0,2.650156E0,4.5649195E0,1.1555598E1,0E0,4.9905849E-1,1.0186787E0,4.3221247E-1,0E0,0E0,0E0,0E0,0E0,0E0,0E0,0E0,0E0,0E0],"parents":[2147483647,0,0,2,2,3,3,5,5,6,6,7,7,9,9,10,10,11,11,12,12,14,14,15,15,16,16],"right_children":[2,-1,4,6,-1,8,10,12,-1,14,16,18,20,-1,22,24,26,-1,-1,-1,-1,-1,-1,-1,-1,-1,-1],"split_conditions":[1E0,-1.7710909E-1,1.8181819E-1,3E0,3.8553995E-1,1E0,7.91E2,3.58E2,3.8005584E-1,1E1,1.70629E5,1.73E2,1E0,3.807295E-1,3.9E1,2.27E2,9.8922E2,8.047494E-2,-1.6165178E-1,-1.5301323E-1,4.141985E-1,3.494128E-2,2.416733E-1,6.381167E-2,3.0507606E-1,3.8102876E-2,-1.4077963E-1],"split_indices":[18,0,9,1,0,11,7,7,0,1,0,10,19,0,8,8,3,0,0,0,0,0,0,0,0,0,0],"split_type":[0,0,0,0,0,0,0,0,0,0,0,0,0,0,0,0,0,0,0,0,0,0,0,0,0,0,0],"sum_hessian":[4.1587297E4,3.631662E4,5.2706743E3,2.1798085E2,5.0526934E3,9.052148E1,1.2745938E2,6.4605064E1,2.5916412E1,1.1617074E2,1.1288637E1,4.9629593E1,1.4975475E1,1.1189232E2,4.278424E0,6.6668715E0,4.621766E0,7.7410703E0,4.1888523E1,3.8052323E0,1.1170243E1,2.1957011E0,2.0827227E0,4.333351E0,2.3335204E0,1.1803335E0,3.4414325E0],"tree_param":{"num_deleted":"0","num_feature":"21","num_nodes":"27","size_leaf_vector":"1"}},{"base_weights":[-2.6933914E-1,2.3171687E-1,-5.8100325E-1,-5.872688E-1,9.043758E-1,-5.85913E-1,-4.332159E-1,-1.7700201E-1,-4.2541414E-1,1.0432478E0,-5.395602E-1,-1.7674258E-1,-5.4752934E-1,-1.9523792E-1,-1.7666964E-1,-5.764832E-1,8.952715E-1,5.64687E-1,1.2253023E0,-5.4006174E-2,-5.8518267E-1,-3.8781127E-1,-5.7802314E-1,6.684123E-1,-4.8126435E-1,-1.7550252E-1,3.6985446E-2,5.5561326E-2,1.2936563E0,1.0160948E0,-2.847231E-1,1.0180932E0,1.2719101E0,-3.7366194E-1,1.0508772E0,-5.892862E-1,-2.2847457E-1,6.57786E-1,-1.7637485E-1,-5.3392804E-1,-1.7691797E-1,-1.5664688E-1,9.5166177E-1,-5.6989634E-1,-1.1590727E-1,-1.3076903E-1,1.8265644E-1,3.9864577E-2,5.0256354E-1,5.9664417E-3,3.672804E-1,-1.3722087E-1,1.1569768E-1,2.3596679E-1,3.831485E-1,3.598913E-1,3.8650104E-1,-1.624424E-1,1.2939757E-1,-9.689254E-2,3.5447818E-1,4.321058E-2,-1.7720163E-1,-1.2380056E-1,1.9833232E-1,-6.0594648E-2,4.5490208E-1,-1.6258197E-1,2.1305914E-1,2.291864E-1,-1.2820798E-1,3.328823E-1,-1.5192756E-1,-3.8691845E-2,-1.7227046E-1,2.3113717E-1,-1.4942549E-1],"categories":[],"categories_nodes":[],"categories_segments":[],"categories_sizes":[],"default_left":[0,0,0,0,0,0,0,0,0,0,0,0,0,0,0,0,0,0,0,0,0,0,0,0,0,0,0,0,0,0,0,0,0,0,0,0,0,0,0,0,0,0,0,0,0,0,0,0,0,0,0,0,0,0,0,0,0,0,0,0,0,0,0,0,0,0,0,0,0,0,0,0,0,0,0,0,0],"id":6,"left_children":[1,3,5,7,9,11,13,-1,15,17,19,-1,21,23,-1,25,27,29,31,33,35,37,39,41,43,-1,-1,45,47,49,51,53,55,57,59,61,63,65,-1,67,-1,69,71,73,75,-1,-1,-1,-1,-1,-1,-1,-1,-1,-1,-1,-1,-1,-1,-1,-1,-1,-1,-1,-1,-1,-1,-1,-1,-1,-1,-1,-1,-1,-1,-1,-1],"loss_changes":[6.639423E3,8.982769E3,1.8765625E1,3.0075684E0,1.7957344E3,2.8203125E0,3.1252228E1,0E0,2.5634853E1,7.108828E2,1.7382874E1,0E0,9.431152E0,8.340184E1,0E0,7.49733E-1,4.3822565E0,8.6401965E2,5.5835938E1,2.4628712E1,9.17099E-1,6.751874E1,5.4315186E-1,1.9801006E1,8.134098E0,0E0,0E0,1.7145103E0,3.7570744E0,3.050681E2,9.075839E1,6.445581E1,4.1835938E0,7.5230317E0,3.1940308E0,8.063507E-1,1.8794143E0,3.8699875E1,0E0,3.9661407E0,0E0,5.896474E0,1.5011219E1,3.1529236E-1,1.7555964E1,0E0,0E0,0E0,0E0,0E0,0E0,0E0,0E0,0E0,0E0,0E0,0E0,0E0,0E0,0E0,0E0,0E0,0E0,0E0,0E0,0E0,0E0,0E0,0E0,0E0,0E0,0E0,0E0,0E0,0E0,0E0,0E0],"parents":[2147483647,0,0,1,1,2,2,3,3,4,4,5,5,6,6,8,8,9,9,10,10,12,12,13,13,15,15,16,16,17,17,18,18,19,19,20,20,21,21,22,22,23,23,24,24,27,27,28,28,29,29,30,30,31,31,32,32,33,33,34,34,35,35,36,36,37,37,39,39,41,41,42,42,43,43,44,44],"right_children":[2,4,6,8,10,12,14,-1,16,18,20,-1,22,24,-1,26,28,30,32,34,36,38,40,42,44,-1,-1,46,48,50,52,54,56,58,60,62,64,66,-1,68,-1,70,72,74,76,-1,-1,-1,-1,-1,-1,-1,-1,-1,-1,-1,-1,-1,-1,-1,-1,-1,-1,-1,-1,-1,-1,-1,-1,-1,-1,-1,-1,-1,-1,-1,-1],"split_conditions":[1E0,3E0,8.31E2,8.22E2,1E0,5.82E2,1E0,-1.7700201E-1,1E0,4E0,3.3333334E-1,-1.7674258E-1,3.3333334E-1,6.25E-1,-1.7666964E-1,3.64E2,7.692308E-2,4.78E2,1.1E1,7.91E2,2.23296E4,1E0,6E-1,3.67025E3,1.776E4,-1.7550252E-1,3.6985446E-2,8.71E2,5.3846154E0,1E0,7.6E1,5E0,1E0,7E0,4E0,1.75E0,9.73E2,3.77068E3,-1.7637485E-1,1E0,-1.7691797E-1,4.3333335E0,1E0,1.485E3,7.8571427E-1,-1.3076903E-1,1.8265644E-1,3.9864577E-2,5.0256354E-1,5.9664417E-3,3.672804E-1,-1.3722087E-1,1.1569768E-1,2.3596679E-1,3.831485E-1,3.598913E-1,3.8650104E-1,-1.624424E-1,1.2939757E-1,-9.689254E-2,3.5447818E-1,4.321058E-2,-1.7720163E-1,-1.2380056E-1,1.9833232E-1,-6.0594648E-2,4.5490208E-1,-1.6258197E-1,2.1305914E-1,2.291864E-1,-1.2820798E-1,3.328823E-1,-1.5192756E-1,-3.8691845E-2,-1.7227046E-1,2.3113717E-1,-1.4942549E-1],"split_indices":[11,1,7,7,18,7,17,0,17,1,9,0,9,9,0,5,9,10,7,7,3,17,9,3,3,0,0,7,4,19,8,1,19,1,1,5,7,3,0,14,0,5,18,0,9,0,0,0,0,0,0,0,0,0,0,0,0,0,0,0,0,0,0,0,0,0,0,0,0,0,0,0,0,0,0,0,0],"split_type":[0,0,0,0,0,0,0,0,0,0,0,0,0,0,0,0,0,0,0,0,0,0,0,0,0,0,0,0,0,0,0,0,0,0,0,0,0,0,0,0,0,0,0,0,0,0,0,0,0,0,0,0,0,0,0,0,0,0,0,0,0,0,0,0,0,0,0,0,0,0,0,0,0,0,0,0,0],"sum_hessian":[4.2514613E4,1.6303718E4,2.6210896E4,7.3522383E3,8.9514795E3,2.5365256E4,8.456394E2,7.227339E3,1.24899216E2,8.16635E3,7.851297E2,2.3383814E4,1.9814424E3,3.353204E2,5.1031903E2,1.12584526E2,1.231469E1,2.2516396E3,5.9147104E3,6.762189E1,7.175078E2,3.1985406E2,1.6615883E3,8.3091286E1,2.5222911E2,1.1139145E2,1.1930763E0,4.329177E0,7.9855127E0,1.470151E3,7.814885E2,1.0902988E3,4.8244116E3,5.2961353E1,1.4660535E1,7.087029E2,8.804944E0,5.1012737E1,2.688413E2,3.5828656E2,1.3033018E3,2.1349796E1,6.174149E1,2.0253606E2,4.969306E1,2.405071E0,1.9241056E0,2.3090727E0,5.6764402E0,2.543003E2,1.2158507E3,6.216731E2,1.5981543E2,5.7787256E2,5.124263E2,9.07168E2,3.9172434E3,4.4096146E1,8.8652115E0,1.145922E0,1.3514613E1,1.1426623E0,7.075602E2,7.7387033E0,1.0662405E0,2.587045E1,2.5142288E1,3.5655487E2,1.7317158E0,4.4374733E0,1.6912323E1,5.5922714E1,5.8187757E0,2.2728522E0,2.002632E2,1.4665102E1,3.5027958E1],"tree_param":{"num_deleted":"0","num_feature":"21","num_nodes":"77","size_leaf_vector":"1"}},{"base_weights":[4.7663566E-1,-1.771282E-1,1.1683507E0,-3.471208E-1,3.8499317E-1,-5.5224967E-1,-4.7981497E-2,-1.774442E-1,-3.9558625E-1,-1.7659357E-1,4.3144792E-1,1.9306675E-1,-5.8051866E-1,8.597946E-1,-5.158854E-1,-1.3865796E-1,2.0356451E-1,-1.7556795E-1,-2.6735183E-2,3.4756094E-1,-1.6265501E-1,-1.5834184E-1,8.842571E-2],"categories":[],"categories_nodes":[],"categories_segments":[],"categories_sizes":[],"default_left":[0,0,0,0,0,0,0,0,0,0,0,0,0,0,0,0,0,0,0,0,0,0,0],"id":7,"left_children":[1,-1,3,5,-1,7,9,-1,11,-1,13,15,17,19,21,-1,-1,-1,-1,-1,-1,-1,-1],"loss_changes":[3.909662E4,0E0,5.599203E3,1.3906229E2,0E0,8.029694E0,2.3954399E2,0E0,2.9753265E1,0E0,1.9922244E2,2.125921E1,4.2774963E-1,1.4206978E2,1.6355476E0,0E0,0E0,0E0,0E0,0E0,0E0,0E0,0E0],"parents":[2147483647,0,0,2,2,3,3,5,5,6,6,8,8,10,10,11,11,12,12,13,13,14,14],"right_children":[2,-1,4,6,-1,8,10,-1,12,-1,14,16,18,20,22,-1,-1,-1,-1,-1,-1,-1,-1],"split_conditions":[1E0,-1.771282E-1,1E0,1E0,3.8499317E-1,6.666667E-1,3E0,-1.774442E-1,2.4E1,-1.7659357E-1,5E0,6.25E0,1E0,1.33E2,1E0,-1.3865796E-1,2.0356451E-1,-1.7556795E-1,-2.6735183E-2,3.4756094E-1,-1.6265501E-1,-1.5834184E-1,8.842571E-2],"split_indices":[17,0,11,9,0,9,1,0,7,0,1,4,20,7,20,0,0,0,0,0,0,0,0],"split_type":[0,0,0,0,0,0,0,0,0,0,0,0,0,0,0,0,0,0,0,0,0,0,0],"sum_hessian":[5.2967082E4,2.0831639E4,3.2135441E4,2.2656892E3,2.9869752E4,1.3435383E3,9.221509E2,1.0722535E3,2.7128473E2,4.332909E2,4.8886002E2,6.484249E1,2.0644225E2,3.3670688E2,1.5215314E2,2.7616356E1,3.7226135E1,2.0429411E2,2.1481423E0,2.7770538E2,5.9001488E1,1.5029195E2,1.8611952E0],"tree_param":{"num_deleted":"0","num_feature":"21","num_nodes":"23","size_leaf_vector":"1"}},{"base_weights":[3.197339E-2,4.4273916E-1,-1.7705713E-1,-1.7715883E-1,1.1093726E0,1.2718343E0,-1.7691216E-1,1.2755144E0,9.586929E-1,1.1957461E0,3.8499182E-1,1.2586758E-1,1.1777879E0,3.7244338E-1,1.2966815E-1,3.5357916E-1,-8.28096E-2,2.292789E-1,3.8951108E-1],"categories":[],"categories_nodes":[],"categories_segments":[],"categories_sizes":[],"default_left":[0,0,0,0,0,0,0,0,0,0,0,0,0,0,0,0,0,0,0],"id":8,"left_children":[1,3,-1,-1,5,7,-1,9,11,13,-1,15,17,-1,-1,-1,-1,-1,-1],"loss_changes":[1.1811038E4,1.9175098E4,0E0,0E0,4.6714883E3,1.6576172E1,0E0,7.951172E0,3.3321136E1,4.7395874E1,0E0,1.6962908E1,6.2430573E0,0E0,0E0,0E0,0E0,0E0,0E0],"parents":[2147483647,0,0,1,1,4,4,5,5,7,7,8,8,9,9,11,11,12,12],"right_children":[2,4,-1,-1,6,8,-1,10,12,14,-1,16,18,-1,-1,-1,-1,-1,-1],"split_conditions":[1E0,1E0,-1.7705713E-1,-1.7715883E-1,1E0,8.9E2,-1.7691216E-1,3.3333334E-1,6.666667E-1,5.48E2,3.8499182E-1,3.4707E3,7.8571427E-1,3.7244338E-1,1.2966815E-1,3.5357916E-1,-8.28096E-2,2.292789E-1,3.8951108E-1],"split_indices":[17,11,0,0,18,7,0,9,9,7,0,3,9,0,0,0,0,0,0],"split_type":[0,0,0,0,0,0,0,0,0,0,0,0,0,0,0,0,0,0,0],"sum_hessian":[4.6213633E4,2.7836002E4,1.837763E4,1.0916209E4,1.6919793E4,1.5443387E4,1.4764059E3,1.5260961E4,1.8242616E2,1.3717477E3,1.3889213E4,3.8323826E1,1.4410233E2,1.2936377E3,7.810997E1,1.0054542E1,2.8269283E1,3.4189857E1,1.09912476E2],"tree_param":{"num_deleted":"0","num_feature":"21","num_nodes":"19","size_leaf_vector":"1"}},{"base_weights":[-1.1034935E-2,7.635872E-1,-5.870462E-1,1.073771E0,-4.8355368E-1,-3.9598447E-1,-5.879091E-1,1.1739128E0,-4.1547298E-1,-2.281157E-1,-5.7272035E-1,-5.553406E-1,3.2411966E-1,-5.8889776E-1,-5.376019E-1,1.2822611E0,5.98736E-1,7.953234E-1,-5.8414674E-1,1.9547248E-1,-4.4685438E-1,-4.916135E-1,-5.8641165E-1,-1.7228745E-1,-2.5458204E-2,7.104638E-1,-1.5498802E-1,-5.609529E-1,-1.7689182E-1,-3.231846E-1,-1.7661484E-1,3.8511688E-1,1.1829847E0,2.6321575E-2,1.131585E0,1.106886E0,-1.7088312E-1,-7.027556E-2,-1.7657624E-1,5.9463054E-1,-5.3751445E-1,-5.1325554E-1,3.564719E-1,-2.834965E-1,-5.6792945E-1,-1.0420751E-1,-5.868063E-1,-1.2243245E-1,1.5343183E-1,1.2438928E0,-1.4683081E-1,-4.7033176E-1,-1.7696089E-1,6.476077E-1,-5.722859E-1,3.813999E-1,3.243742E-2,3.0739757E-1,-9.324855E-2,3.8555402E-1,1.4531596E-1,3.5953146E-1,-4.327533E-2,1.6870616E-1,-1.4796002E-1,3.1903476E-1,-1.5538955E-1,-1.685256E-1,2.6835963E-1,-4.343425E-2,-1.709872E-1,-1.2485666E-1,3.3432537E-1,-1.5638725E-1,6.708354E-2,-1.7606546E-1,-6.970269E-2,5.0926764E-2,-9.662511E-2,-1.02405034E-1,-1.7615983E-1,4.3270442E-1,-9.370453E-2,-1.6921698E-1,-2.8672218E-2,4.570547E-1,-1.5967213E-1,-1.7526858E-1,3.771818E-2],"categories":[],"categories_nodes":[],"categories_segments":[],"categories_sizes":[],"default_left":[0,0,0,0,0,0,0,0,0,0,0,0,0,0,0,0,0,0,0,0,0,0,0,0,0,0,0,0,0,0,0,0,0,0,0,0,0,0,0,0,0,0,0,0,0,0,0,0,0,0,0,0,0,0,0,0,0,0,0,0,0,0,0,0,0,0,0,0,0,0,0,0,0,0,0,0,0,0,0,0,0,0,0,0,0,0,0,0,0],"id":9,"left_children":[1,3,5,7,9,11,13,15,17,19,21,23,25,27,29,31,33,35,37,39,41,43,45,-1,47,49,-1,51,-1,53,-1,-1,55,57,59,61,-1,63,-1,65,67,69,71,73,75,77,79,-1,-1,81,-1,83,-1,85,87,-1,-1,-1,-1,-1,-1,-1,-1,-1,-1,-1,-1,-1,-1,-1,-1,-1,-1,-1,-1,-1,-1,-1,-1,-1,-1,-1,-1,-1,-1,-1,-1,-1,-1],"loss_changes":[2.0362967E4,7.529709E3,4.0820312E0,2.325043E3,8.818115E1,1.4035555E1,9.794922E-1,9.094121E2,2.0118422E2,9.319824E1,2.9025269E0,9.8184586E-1,7.678589E0,1.9824219E-1,5.43927E0,2.65625E-1,7.066741E2,5.1915573E1,1.9284668E0,1.0064798E2,3.554895E1,6.5284195E0,4.0576172E-1,0E0,1.1276371E0,1.0749705E1,0E0,1.5067291E0,0E0,2.4817894E1,0E0,0E0,1.800644E1,3.7664038E2,1.1865918E2,1.145826E1,0E0,2.5599527E0,0E0,1.1660125E2,4.717083E0,1.2720795E1,3.0453476E1,1.3984457E1,1.8176498E0,2.4700785E-1,3.6010742E-2,0E0,0E0,3.9250584E0,0E0,5.9044724E0,0E0,2.2629423E1,7.4852943E-1,0E0,0E0,0E0,0E0,0E0,0E0,0E0,0E0,0E0,0E0,0E0,0E0,0E0,0E0,0E0,0E0,0E0,0E0,0E0,0E0,0E0,0E0,0E0,0E0,0E0,0E0,0E0,0E0,0E0,0E0,0E0,0E0,0E0,0E0],"parents":[2147483647,0,0,1,1,2,2,3,3,4,4,5,5,6,6,7,7,8,8,9,9,10,10,11,11,12,12,13,13,14,14,15,15,16,16,17,17,18,18,19,19,20,20,21,21,22,22,24,24,25,25,27,27,29,29,32,32,33,33,34,34,35,35,37,37,39,39,40,40,41,41,42,42,43,43,44,44,45,45,46,46,49,49,51,51,53,53,54,54],"right_children":[2,4,6,8,10,12,14,16,18,20,22,24,26,28,30,32,34,36,38,40,42,44,46,-1,48,50,-1,52,-1,54,-1,-1,56,58,60,62,-1,64,-1,66,68,70,72,74,76,78,80,-1,-1,82,-1,84,-1,86,88,-1,-1,-1,-1,-1,-1,-1,-1,-1,-1,-1,-1,-1,-1,-1,-1,-1,-1,-1,-1,-1,-1,-1,-1,-1,-1,-1,-1,-1,-1,-1,-1,-1,-1],"split_conditions":[1E0,4E0,6.666667E-1,1E0,7.1E1,1.09052E3,1E0,3E0,7.692308E-2,1E0,1.99E2,1E0,3E0,1.75E0,7.692308E-2,8.31E2,4.06E2,3E0,3.875E0,5E0,1E0,1E0,5.9267004E2,-1.7228745E-1,3.9008502E2,1E0,-1.5498802E-1,1E0,-1.7689182E-1,1E0,-1.7661484E-1,3.8511688E-1,1E0,1E0,1E0,5.89E2,-1.7088312E-1,1E0,-1.7657624E-1,1E0,7.56E2,3.3333333E0,7.2E2,4.73E2,8.78E2,6.7E2,7.7155E2,-1.2243245E-1,1.5343183E-1,7.692308E-2,-1.4683081E-1,5.0333332E1,-1.7696089E-1,3E0,9.25E1,3.813999E-1,3.243742E-2,3.0739757E-1,-9.324855E-2,3.8555402E-1,1.4531596E-1,3.5953146E-1,-4.327533E-2,1.6870616E-1,-1.4796002E-1,3.1903476E-1,-1.5538955E-1,-1.685256E-1,2.6835963E-1,-4.343425E-2,-1.709872E-1,-1.2485666E-1,3.3432537E-1,-1.5638725E-1,6.708354E-2,-1.7606546E-1,-6.970269E-2,5.0926764E-2,-9.662511E-2,-1.02405034E-1,-1.7615983E-1,4.3270442E-1,-9.370453E-2,-1.6921698E-1,-2.8672218E-2,4.570547E-1,-1.5967213E-1,-1.7526858E-1,3.771818E-2],"split_indices":[11,1,5,18,7,2,14,1,9,19,7,14,1,5,9,7,10,1,5,1,14,19,3,0,2,19,0,19,0,19,0,0,17,19,17,7,0,19,0,17,10,5,10,10,10,7,3,0,0,9,0,8,0,1,8,0,0,0,0,0,0,0,0,0,0,0,0,0,0,0,0,0,0,0,0,0,0,0,0,0,0,0,0,0,0,0,0,0,0],"split_type":[0,0,0,0,0,0,0,0,0,0,0,0,0,0,0,0,0,0,0,0,0,0,0,0,0,0,0,0,0,0,0,0,0,0,0,0,0,0,0,0,0,0,0,0,0,0,0,0,0,0,0,0,0,0,0,0,0,0,0,0,0,0,0,0,0,0,0,0,0,0,0,0,0,0,0,0,0,0,0,0,0,0,0,0,0,0,0,0,0],"sum_hessian":[4.5635316E4,1.9462178E4,2.6173137E4,1.5585865E4,3.8763135E3,1.1974244E2,2.6053395E4,1.4604052E4,9.818138E2,1.00391907E3,2.8723945E3,9.8232735E1,2.15097E1,2.5540738E4,5.1265607E2,1.2288068E4,2.3159827E3,1.1959633E2,8.622174E2,3.4191193E2,6.6200714E2,4.2017856E2,2.4522158E3,9.475991E1,3.472826E0,1.48436365E1,6.666065E0,6.7986163E2,2.4860877E4,1.00094666E2,4.1256143E2,1.2098004E4,1.9006458E2,1.1170444E3,1.1989384E3,9.7524284E1,2.2072046E1,7.531346E0,8.546861E2,2.2148694E2,1.2042498E2,6.1179834E2,5.020879E1,1.14002754E2,3.061758E2,2.2221806E0,2.4499937E3,2.1677415E0,1.3050843E0,1.0250152E1,4.5934844E0,1.68638E2,5.1122363E2,2.0112577E1,7.9982086E1,1.7545984E2,1.4604735E1,2.814884E2,8.3555597E2,9.681811E2,2.3075726E2,9.091378E1,6.610505E0,2.8854625E0,4.645883E0,1.5585704E2,6.56299E1,1.1901831E2,1.4066714E0,8.20637E1,5.297346E2,2.5086332E1,2.512246E1,7.759076E1,3.6411995E1,2.8909753E2,1.7078276E1,1.0822239E0,1.1399567E0,5.307413E0,2.4446863E3,9.155773E0,1.0943787E0,1.3449614E2,3.4141857E1,1.1375921E1,8.736657E0,7.879692E1,1.1851642E0],"tree_param":{"num_deleted":"0","num_feature":"21","num_nodes":"89","size_leaf_vector":"1"}},{"base_weights":[-3.2893342E-1,-1.7019509E-1,9.343472E-1,5.183404E-1,9.440411E-1,1.0028091E-1,8.144635E-1,7.784034E-1,2.8448394E-1,-1.996443E-1,5.949803E-1,9.11009E-1,1.0616915E-1,5.4407704E-1,2.90625E-1,-3.3081293E-1,2.2495753E-1,-1.4141116E-1,8.7409556E-1,9.35708E-1,1.421936E-1,7.996682E-1,-1.644752E-1,-4.8304226E-2,7.5153136E-1,-1.4323969E-1,1.10138945E-1,1.5852208E-1,-1.4886138E-1,3.4228757E-1,-1.331279E-1,2.8722867E-1,1.6564518E-1,-1.01499096E-1,1.6198489E-1,8.455921E-2,2.760015E-1,1.4851952E-1,-1.5557937E-1,2.5267443E-1,-1.6129252E-1],"categories":[],"categories_nodes":[],"categories_segments":[],"categories_sizes":[],"default_left":[0,0,0,0,0,0,0,0,0,0,0,0,0,0,0,0,0,0,0,0,0,0,0,0,0,0,0,0,0,0,0,0,0,0,0,0,0,0,0,0,0],"id":10,"left_children":[1,-1,3,5,7,9,11,13,-1,15,17,19,21,23,-1,25,-1,27,29,31,33,35,-1,37,39,-1,-1,-1,-1,-1,-1,-1,-1,-1,-1,-1,-1,-1,-1,-1,-1],"loss_changes":[1.0482083E4,0E0,2.1793945E1,1.5769966E1,3.052246E0,8.165361E0,5.019203E0,5.730034E0,0E0,4.546282E0,4.382515E0,1.1146545E0,5.0250235E0,8.04384E0,0E0,3.3499782E0,0E0,1.8201923E0,5.839589E0,2.4032593E-4,7.9896384E-1,7.1763515E-2,0E0,4.81563E0,6.1037216E0,0E0,0E0,0E0,0E0,0E0,0E0,0E0,0E0,0E0,0E0,0E0,0E0,0E0,0E0,0E0,0E0],"parents":[2147483647,0,0,2,2,3,3,4,4,5,5,6,6,7,7,9,9,10,10,11,11,12,12,13,13,15,15,17,17,18,18,19,19,20,20,21,21,23,23,24,24],"right_children":[2,-1,4,6,8,10,12,14,-1,16,18,20,22,24,-1,26,-1,28,30,32,34,36,-1,38,40,-1,-1,-1,-1,-1,-1,-1,-1,-1,-1,-1,-1,-1,-1,-1,-1],"split_conditions":[1E0,-1.7019509E-1,3E0,3E0,3.3333334E-1,1.92E2,7E0,1E0,2.8448394E-1,1E0,1E0,8.38E2,4.41E2,3E0,2.90625E-1,7.692308E-2,2.2495753E-1,1.60249E5,4.94E2,6E0,4.4E1,1.33604E5,-1.644752E-1,2.89E2,8.81E2,-1.4323969E-1,1.10138945E-1,1.5852208E-1,-1.4886138E-1,3.4228757E-1,-1.331279E-1,2.8722867E-1,1.6564518E-1,-1.01499096E-1,1.6198489E-1,8.455921E-2,2.760015E-1,1.4851952E-1,-1.5557937E-1,2.5267443E-1,-1.6129252E-1],"split_indices":[18,0,5,1,9,7,1,11,0,11,19,7,7,1,0,9,0,0,10,1,10,0,0,10,7,0,0,0,0,0,0,0,0,0,0,0,0,0,0,0,0],"split_type":[0,0,0,0,0,0,0,0,0,0,0,0,0,0,0,0,0,0,0,0,0,0,0,0,0,0,0,0,0,0,0,0,0,0,0,0,0,0,0,0,0],"sum_hessian":[3.4804633E4,2.927999E4,5.524641E3,1.270454E2,5.3975957E3,5.323215E1,7.381325E1,1.392839E2,5.258312E3,3.351138E1,1.972077E1,6.470702E1,9.106227E0,6.415912E1,7.512479E1,3.0016375E1,3.4950056E0,5.5559177E0,1.4164852E1,6.2482628E1,2.2243938E0,4.3133507E0,4.792876E0,1.6840004E1,4.7319115E1,2.5065477E1,4.9508967E0,1.754411E0,3.801507E0,1.18911495E1,2.2737026E0,5.7717876E1,4.7647514E0,1.0750465E0,1.1493474E0,1.4436557E0,2.8696952E0,7.7885613E0,9.051443E0,4.4532146E1,2.7869685E0],"tree_param":{"num_deleted":"0","num_feature":"21","num_nodes":"41","size_leaf_vector":"1"}},{"base_weights":[-2.427832E-1,1.95618E-1,-5.564303E-1,-5.636635E-1,6.83802E-1,-5.6196904E-1,-3.9609823E-1,-1.70043E-1,-3.8560072E-1,7.7298856E-1,-5.0728506E-1,-1.6972634E-1,-5.1753587E-1,-1.614438E-1,-1.6965258E-1,-5.5073786E-1,6.604503E-1,4.3502587E-1,8.9784175E-1,-2.6579965E-2,-5.582776E-1,-3.470745E-1,-5.519463E-1,5.107017E-1,-4.4277737E-1,-1.6832745E-1,4.4879068E-2,-1.2397857E-1,8.332697E-1,-1.3711882E-1,8.1187713E-1,9.499764E-1,7.67784E-1,-3.2251215E-1,7.7450234E-1,-5.6324285E-1,-1.6378486E-1,4.7590503E-1,-1.6929655E-1,-4.7240162E-1,-1.6848415E-1,6.354059E-1,-1.5537396E-1,-5.427402E-1,-7.485615E-2,2.576938E-2,3.0557895E-1,1.388889E-1,-1.23386644E-1,2.759498E-1,-1.8591033E-2,2.7087277E-1,2.8872412E-1,1.1411394E-1,2.5661147E-1,-1.5174815E-1,1.1153424E-1,-1.1241354E-1,2.6379365E-1,4.654178E-2,-1.6947493E-1,1.2111114E-1,-1.4399406E-1,-1.4140873E-1,2.594151E-1,-3.9957747E-2,-1.6893494E-1,-9.349459E-2,2.3232423E-1,-3.197576E-2,-1.6432303E-1,1.8395707E-1,-1.3743415E-1],"categories":[],"categories_nodes":[],"categories_segments":[],"categories_sizes":[],"default_left":[0,0,0,0,0,0,0,0,0,0,0,0,0,0,0,0,0,0,0,0,0,0,0,0,0,0,0,0,0,0,0,0,0,0,0,0,0,0,0,0,0,0,0,0,0,0,0,0,0,0,0,0,0,0,0,0,0,0,0,0,0,0,0,0,0,0,0,0,0,0,0,0,0],"id":11,"left_children":[1,3,5,7,9,11,13,-1,15,17,19,-1,21,23,-1,25,27,29,31,33,35,37,39,41,43,-1,-1,-1,45,47,49,51,53,55,57,59,61,63,-1,65,-1,67,-1,69,71,-1,-1,-1,-1,-1,-1,-1,-1,-1,-1,-1,-1,-1,-1,-1,-1,-1,-1,-1,-1,-1,-1,-1,-1,-1,-1,-1,-1],"loss_changes":[4.988094E3,5.6084805E3,1.8557129E1,3.098999E0,9.7868115E2,3.1450195E0,2.8114418E1,0E0,1.8665367E1,3.6114697E2,1.5725555E1,0E0,9.288666E0,5.6743317E1,0E0,7.513752E-1,3.1091714E0,4.9890036E2,4.1688477E1,1.5098314E1,1.0447845E0,4.9285213E1,7.674866E-1,1.1700666E1,7.7280006E0,0E0,0E0,0E0,1.7360678E0,1.5147032E2,1.3164252E2,1.7424316E0,6.0592773E1,6.099207E0,2.400053E0,7.764282E-1,1.741528E0,2.1695564E1,0E0,4.5972595E0,0E0,1.0709389E1,0E0,3.037262E-1,1.24871435E1,0E0,0E0,0E0,0E0,0E0,0E0,0E0,0E0,0E0,0E0,0E0,0E0,0E0,0E0,0E0,0E0,0E0,0E0,0E0,0E0,0E0,0E0,0E0,0E0,0E0,0E0,0E0,0E0],"parents":[2147483647,0,0,1,1,2,2,3,3,4,4,5,5,6,6,8,8,9,9,10,10,12,12,13,13,15,15,16,16,17,17,18,18,19,19,20,20,21,21,22,22,23,23,24,24,28,28,29,29,30,30,31,31,32,32,33,33,34,34,35,35,36,36,37,37,39,39,41,41,43,43,44,44],"right_children":[2,4,6,8,10,12,14,-1,16,18,20,-1,22,24,-1,26,28,30,32,34,36,38,40,42,44,-1,-1,-1,46,48,50,52,54,56,58,60,62,64,-1,66,-1,68,-1,70,72,-1,-1,-1,-1,-1,-1,-1,-1,-1,-1,-1,-1,-1,-1,-1,-1,-1,-1,-1,-1,-1,-1,-1,-1,-1,-1,-1,-1],"split_conditions":[1E0,3E0,8.31E2,8.22E2,1E0,5.82E2,1E0,-1.70043E-1,1E0,4E0,3.3333334E-1,-1.6972634E-1,3.3333334E-1,6.25E-1,-1.6965258E-1,3.64E2,1E0,4.5E1,4.49E2,7.91E2,2.23296E4,1E0,5E-1,1E0,1.776E4,-1.6832745E-1,4.4879068E-2,-1.2397857E-1,3.875E0,2.14E2,6.28E2,1E0,1E0,7E0,5.9267004E2,1.75E0,8.4E1,2.48923E3,-1.6929655E-1,1E0,-1.6848415E-1,5E0,-1.5537396E-1,1.485E3,7.8571427E-1,2.576938E-2,3.0557895E-1,1.388889E-1,-1.23386644E-1,2.759498E-1,-1.8591033E-2,2.7087277E-1,2.8872412E-1,1.1411394E-1,2.5661147E-1,-1.5174815E-1,1.1153424E-1,-1.1241354E-1,2.6379365E-1,4.654178E-2,-1.6947493E-1,1.2111114E-1,-1.4399406E-1,-1.4140873E-1,2.594151E-1,-3.9957747E-2,-1.6893494E-1,-9.349459E-2,2.3232423E-1,-3.197576E-2,-1.6432303E-1,1.8395707E-1,-1.3743415E-1],"split_indices":[11,1,7,7,18,7,17,0,17,1,9,0,9,9,0,5,19,8,10,7,3,17,9,18,3,0,0,0,5,10,10,19,19,1,3,5,5,3,0,17,0,1,0,0,9,0,0,0,0,0,0,0,0,0,0,0,0,0,0,0,0,0,0,0,0,0,0,0,0,0,0,0,0],"split_type":[0,0,0,0,0,0,0,0,0,0,0,0,0,0,0,0,0,0,0,0,0,0,0,0,0,0,0,0,0,0,0,0,0,0,0,0,0,0,0,0,0,0,0,0,0,0,0,0,0,0,0,0,0,0,0,0,0,0,0,0,0,0,0,0,0,0,0,0,0,0,0,0,0],"sum_hessian":[3.6274402E4,1.5128653E4,2.114575E4,5.920397E3,9.208256E3,2.0437225E4,7.0852606E2,5.815449E3,1.0494785E2,8.567116E3,6.4113983E2,1.8821992E4,1.6152311E3,2.978792E2,4.1064685E2,9.104788E1,1.3899969E1,2.3123484E3,6.254768E3,6.163457E1,5.7950525E2,2.7315756E2,1.3420735E3,8.7651695E1,2.1022752E2,8.991739E1,1.1304947E0,1.7342057E0,1.2165764E1,9.184983E2,1.3938502E3,4.4604556E3,1.7943123E3,4.544419E1,1.6190382E1,5.7187964E2,7.6256227E0,5.679923E1,2.1635834E2,1.508383E2,1.1912352E3,7.8515175E1,9.136519E0,1.6493903E2,4.5288498E1,2.7081258E0,9.457638E0,2.8783E2,6.3066833E2,1.2405405E3,1.5330965E2,9.476809E2,3.5127747E3,3.3185287E2,1.4624594E3,3.6166546E1,9.277645E0,1.137944E0,1.5052438E1,1.1160613E0,5.7076355E2,2.629535E0,4.996088E0,1.6467337E1,4.0331894E1,3.2347996E1,1.1849031E2,9.890416E0,6.8624756E1,2.1235306E0,1.6281549E2,1.5987273E1,2.9301224E1],"tree_param":{"num_deleted":"0","num_feature":"21","num_nodes":"73","size_leaf_vector":"1"}},{"base_weights":[3.894587E-1,-1.7021525E-1,8.7292564E-1,-3.0574498E-1,2.839871E-1,-5.2497256E-1,-1.4869167E-2,-1.7089167E-1,-3.5633862E-1,-1.6957399E-1,3.7496233E-1,1.5823504E-1,-5.5636615E-1,6.6696036E-1,-4.732462E-1,-1.2521482E-1,1.5273097E-1,-1.685733E-1,-1.8512031E-2,2.54923E-1,-1.5823284E-1,-1.6542716E-1,-7.764753E-2],"categories":[],"categories_nodes":[],"categories_segments":[],"categories_sizes":[],"default_left":[0,0,0,0,0,0,0,0,0,0,0,0,0,0,0,0,0,0,0,0,0,0,0],"id":12,"left_children":[1,-1,3,5,-1,7,9,-1,11,-1,13,15,17,19,21,-1,-1,-1,-1,-1,-1,-1,-1],"loss_changes":[2.315962E4,0E0,2.8893223E3,1.2484509E2,0E0,8.206299E0,1.8097147E2,0E0,2.4426483E1,0E0,1.2261141E2,1.3737529E1,4.3294907E-1,8.0731476E1,1.9867878E0,0E0,0E0,0E0,0E0,0E0,0E0,0E0,0E0],"parents":[2147483647,0,0,2,2,3,3,5,5,6,6,8,8,10,10,11,11,12,12,13,13,14,14],"right_children":[2,-1,4,6,-1,8,10,-1,12,-1,14,16,18,20,22,-1,-1,-1,-1,-1,-1,-1,-1],"split_conditions":[1E0,-1.7021525E-1,1E0,1E0,2.839871E-1,6.666667E-1,3E0,-1.7089167E-1,2.4E1,-1.6957399E-1,5E0,6.25E0,1E0,1.42E2,6.84E2,-1.2521482E-1,1.5273097E-1,-1.685733E-1,-1.8512031E-2,2.54923E-1,-1.5823284E-1,-1.6542716E-1,-7.764753E-2],"split_indices":[17,0,11,9,0,9,1,0,7,0,1,4,20,7,10,0,0,0,0,0,0,0,0],"split_type":[0,0,0,0,0,0,0,0,0,0,0,0,0,0,0,0,0,0,0,0,0,0,0],"sum_hessian":[5.006175E4,1.6804105E4,3.325764E4,1.9569237E3,3.1300719E4,1.1154359E3,8.4148773E2,8.7997705E2,2.3545883E2,3.4871292E2,4.9277484E2,6.596692E1,1.6949191E2,3.66738E2,1.26036835E2,2.4910446E1,4.1056473E1,1.6747862E2,2.0132906E0,3.1831406E2,4.8423946E1,9.1210075E1,3.4826763E1],"tree_param":{"num_deleted":"0","num_feature":"21","num_nodes":"23","size_leaf_vector":"1"}},{"base_weights":[2.7031437E-2,3.6257955E-1,-1.7013761E-1,-1.702562E-1,8.3398205E-1,9.366459E-1,-1.6993363E-1,9.3816406E-1,5.036391E-1,8.6557084E-1,9.4532984E-1,-6.257056E-2,8.926429E-1,2.6983732E-1,3.2307312E-2,2.842622E-1,2.7351314E-1,1.4300562E-1,-8.244905E-2,9.4634645E-2,2.7541143E-1],"categories":[],"categories_nodes":[],"categories_segments":[],"categories_sizes":[],"default_left":[0,0,0,0,0,0,0,0,0,0,0,0,0,0,0,0,0,0,0,0,0],"id":13,"left_children":[1,3,-1,-1,5,7,-1,9,11,13,15,17,19,-1,-1,-1,-1,-1,-1,-1,-1],"loss_changes":[8.1780405E3,1.1494443E4,0E0,0E0,2.5018691E3,1.0183594E1,0E0,7.5839844E0,1.300535E1,3.747644E1,2.2753906E-1,2.9785206E0,2.2218895E-1,0E0,0E0,0E0,0E0,0E0,0E0,0E0,0E0],"parents":[2147483647,0,0,1,1,4,4,5,5,7,7,8,8,9,9,10,10,11,11,12,12],"right_children":[2,4,-1,-1,6,8,-1,10,12,14,16,18,20,-1,-1,-1,-1,-1,-1,-1,-1],"split_conditions":[1E0,1E0,-1.7013761E-1,-1.702562E-1,1E0,9.56E2,-1.6993363E-1,3.3333334E-1,7.8571427E-1,6.42E2,9.21873E3,5.1750103E3,3.25E1,2.6983732E-1,3.2307312E-2,2.842622E-1,2.7351314E-1,1.4300562E-1,-8.244905E-2,9.4634645E-2,2.7541143E-1],"split_indices":[17,11,0,0,18,7,0,9,9,7,3,3,5,0,0,0,0,0,0,0,0],"split_type":[0,0,0,0,0,0,0,0,0,0,0,0,0,0,0,0,0,0,0,0,0],"sum_hessian":[4.1017746E4,2.6213914E4,1.4803833E4,8.817114E3,1.73968E4,1.6208876E4,1.1879243E3,1.6151084E4,5.7792477E1,1.4620066E3,1.4689077E4,2.387731E1,3.3915165E1,1.3992552E3,6.2751297E1,1.37572295E4,9.318482E2,6.3921003E0,1.748521E1,1.9949272E0,3.1920237E1],"tree_param":{"num_deleted":"0","num_feature":"21","num_nodes":"21","size_leaf_vector":"1"}},{"base_weights":[-8.669959E-3,5.9624195E-1,-5.633034E-1,8.0495167E-1,-4.4558164E-1,-3.4816918E-1,-5.6431836E-1,8.686315E-1,-3.8519886E-1,-1.9808719E-1,-5.511322E-1,-5.25381E-1,3.322254E-1,-5.654676E-1,-5.064774E-1,9.456373E-1,4.5651224E-1,6.0584414E-1,-5.596582E-1,2.4900323E-2,-5.5554223E-1,-5.5322117E-1,-1.2495968E-1,-5.4798394E-1,2.1000953E-2,6.4099646E-1,-1.4520116E-1,-5.3170544E-1,-1.6991225E-1,-2.7348945E-1,-1.6958451E-1,2.8394058E-1,8.5634285E-1,6.4730763E-1,-4.48108E-1,8.083056E-1,-1.6264342E-1,-1.7165462E-2,-1.6950656E-1,4.7126666E-1,-2.942458E-1,-1.6894758E-1,-9.797691E-2,-4.9130553E-1,-1.6991149E-1,8.376841E-1,-1.5422541E-1,-1.6807228E-1,-3.4095854E-1,-1.1207759E-1,1.473694E-1,1.0194252E0,-1.3655888E-1,-4.2564732E-1,-1.6996911E-1,6.0406774E-1,-5.4612833E-1,2.7987516E-1,-7.577632E-2,2.3616454E-1,3.2879356E-2,1.1991073E-2,-1.7121601E-1,2.59948E-1,-3.2574225E-2,1.6138953E-1,-1.4066094E-1,-7.016609E-2,2.7335134E-1,-1.2565838E-1,2.2062534E-1,2.0183097E-1,-1.422154E-1,-1.6481552E-1,-4.491816E-2,4.2346236E-1,-9.171579E-2,5.7797544E-2,-1.4122865E-1,9.396982E-2,3.5371214E-1,-2.4957301E-2,-1.6937573E-1,3.6627206E-1,-1.5045992E-1,-1.6808423E-1,3.8448434E-2],"categories":[],"categories_nodes":[],"categories_segments":[],"categories_sizes":[],"default_left":[0,0,0,0,0,0,0,0,0,0,0,0,0,0,0,0,0,0,0,0,0,0,0,0,0,0,0,0,0,0,0,0,0,0,0,0,0,0,0,0,0,0,0,0,0,0,0,0,0,0,0,0,0,0,0,0,0,0,0,0,0,0,0,0,0,0,0,0,0,0,0,0,0,0,0,0,0,0,0,0,0,0,0,0,0,0,0],"id":14,"left_children":[1,3,5,7,9,11,13,15,17,19,21,23,25,27,29,31,33,35,37,39,41,43,45,47,49,51,-1,53,-1,55,-1,-1,57,59,61,63,-1,65,-1,67,69,-1,71,73,-1,75,-1,-1,77,-1,-1,79,-1,81,-1,83,85,-1,-1,-1,-1,-1,-1,-1,-1,-1,-1,-1,-1,-1,-1,-1,-1,-1,-1,-1,-1,-1,-1,-1,-1,-1,-1,-1,-1,-1,-1],"loss_changes":[1.3558858E4,4.20356E3,4.4067383E0,1.2208848E3,8.418616E1,1.2426031E1,1.1088867E0,4.847119E2,1.4187585E2,7.703534E1,1.9442139E0,1.0118561E0,5.75626E0,3.2861328E-1,5.577057E0,1.4550781E-1,4.160191E2,2.9030079E1,2.017273E0,8.504719E1,1.2386627E0,1.553894E0,5.0466914E0,6.4487457E-3,9.5927453E-1,7.146209E0,0E0,1.807312E0,0E0,2.0964796E1,0E0,0E0,1.121418E1,1.4958612E2,2.516475E1,5.694641E0,0E0,2.2209828E0,0E0,7.741373E1,4.4981037E1,0E0,2.4317687E0,7.88797E0,0E0,3.0086582E0,0E0,0E0,5.689537E-1,0E0,0E0,1.0152216E0,0E0,6.6659355E0,0E0,1.4878143E1,7.047577E-1,0E0,0E0,0E0,0E0,0E0,0E0,0E0,0E0,0E0,0E0,0E0,0E0,0E0,0E0,0E0,0E0,0E0,0E0,0E0,0E0,0E0,0E0,0E0,0E0,0E0,0E0,0E0,0E0,0E0,0E0],"parents":[2147483647,0,0,1,1,2,2,3,3,4,4,5,5,6,6,7,7,8,8,9,9,10,10,11,11,12,12,13,13,14,14,15,15,16,16,17,17,18,18,19,19,20,20,21,21,22,22,23,23,24,24,25,25,27,27,29,29,32,32,33,33,34,34,35,35,37,37,39,39,40,40,42,42,43,43,45,45,48,48,51,51,53,53,55,55,56,56],"right_children":[2,4,6,8,10,12,14,16,18,20,22,24,26,28,30,32,34,36,38,40,42,44,46,48,50,52,-1,54,-1,56,-1,-1,58,60,62,64,-1,66,-1,68,70,-1,72,74,-1,76,-1,-1,78,-1,-1,80,-1,82,-1,84,86,-1,-1,-1,-1,-1,-1,-1,-1,-1,-1,-1,-1,-1,-1,-1,-1,-1,-1,-1,-1,-1,-1,-1,-1,-1,-1,-1,-1,-1,-1],"split_conditions":[1E0,4E0,6.666667E-1,1E0,9.4E1,1.09052E3,1E0,3E0,7.692308E-2,5E0,8.73E2,1E0,3E0,1.75E0,7.692308E-2,8.63E2,4.33E2,3E0,3.875E0,1E0,1E0,1E0,2.01484E3,1.05172E3,3.9008502E2,1E0,-1.4520116E-1,1E0,-1.6991225E-1,1E0,-1.6958451E-1,2.8394058E-1,1E0,1E0,1E0,5.89E2,-1.6264342E-1,6E0,-1.6950656E-1,3.44E2,1E0,-1.6894758E-1,6E0,4.53E2,-1.6991149E-1,3.7E1,-1.5422541E-1,-1.6807228E-1,1.05905E3,-1.1207759E-1,1.473694E-1,4.94E2,-1.3655888E-1,1E0,-1.6996911E-1,3E0,4.67E2,2.7987516E-1,-7.577632E-2,2.3616454E-1,3.2879356E-2,1.1991073E-2,-1.7121601E-1,2.59948E-1,-3.2574225E-2,1.6138953E-1,-1.4066094E-1,-7.016609E-2,2.7335134E-1,-1.2565838E-1,2.2062534E-1,2.0183097E-1,-1.422154E-1,-1.6481552E-1,-4.491816E-2,4.2346236E-1,-9.171579E-2,5.7797544E-2,-1.4122865E-1,9.396982E-2,3.5371214E-1,-2.4957301E-2,-1.6937573E-1,3.6627206E-1,-1.5045992E-1,-1.6808423E-1,3.8448434E-2],"split_indices":[11,1,5,18,7,2,14,1,9,1,10,14,1,5,9,7,7,1,5,19,20,19,3,2,2,19,0,19,0,19,0,0,17,17,19,7,0,7,0,10,14,0,1,10,0,5,0,0,2,0,0,10,0,17,0,1,7,0,0,0,0,0,0,0,0,0,0,0,0,0,0,0,0,0,0,0,0,0,0,0,0,0,0,0,0,0,0],"split_type":[0,0,0,0,0,0,0,0,0,0,0,0,0,0,0,0,0,0,0,0,0,0,0,0,0,0,0,0,0,0,0,0,0,0,0,0,0,0,0,0,0,0,0,0,0,0,0,0,0,0,0,0,0,0,0,0,0,0,0,0,0,0,0,0,0,0,0,0,0,0,0,0,0,0,0,0,0,0,0,0,0,0,0,0,0,0,0],"sum_hessian":[4.041136E4,1.9329516E4,2.1081844E4,1.6103675E4,3.22584E3,1.0060968E2,2.0981234E4,1.5286054E4,8.1762054E2,9.652958E2,2.2605442E3,8.000091E1,2.0608772E1,2.0563887E4,4.173478E2,1.2878391E4,2.4076636E3,1.22016205E2,6.956044E2,5.950329E2,3.7026288E2,2.2492214E3,1.1322981E1,7.682006E1,3.1808488E0,1.5108187E1,5.500585E0,5.530929E2,2.0010793E4,8.524603E1,3.3210178E2,1.2750103E4,1.2828781E2,1.9885406E3,4.191229E2,1.0397489E2,1.8041317E1,6.851283E0,6.8875305E2,2.478736E2,3.4715927E2,3.6397366E2,6.2892246E0,4.0075146E2,1.8484698E3,2.9276428E0,8.395338E0,7.091535E1,5.9047074E0,1.8412665E0,1.3395823E0,1.1283068E1,3.8251195E0,1.4008565E2,4.130073E2,1.9918303E1,6.532773E1,1.201499E2,8.137913E0,1.5775989E3,4.109418E2,8.428518E1,3.348377E2,9.782187E1,6.153022E0,2.9880705E0,3.8632126E0,9.5407135E1,1.5246646E2,3.102093E2,3.694999E1,1.8036997E0,4.485525E0,3.419931E2,5.875836E1,1.7931694E0,1.1344733E0,1.0605599E0,4.844147E0,2.626216E0,8.656852E0,4.0892452E1,9.919319E1,1.2718228E1,7.2000737E0,6.415038E1,1.1773466E0],"tree_param":{"num_deleted":"0","num_feature":"21","num_nodes":"87","size_leaf_vector":"1"}},{"base_weights":[-3.109339E-1,-1.6510068E-1,7.7310514E-1,4.6724638E-1,7.818423E-1,1.7288388E-1,6.6888607E-1,6.5025306E-1,2.3542184E-1,4.3230918E-1,-2.502336E-1,7.383846E-1,-4.0570863E-2,4.7070348E-1,2.3920214E-1,-1.4310333E-1,7.803412E-1,-3.9427373E-1,1.7869332E-1,7.609593E-1,-1.1272265E-2,-3.8619876E-1,2.265519E-1,-1.6249205E-1,6.3061166E-1,1.2874551E-1,-1.253504E-1,7.459244E-2,2.8623888E-1,-1.4682938E-1,1.5386228E-1,2.3718949E-1,1.5637574E-1,4.15077E-2,-1.53572E-1,1.1751927E-1,-1.2375152E-1,2.1368952E-1,-1.4891927E-1],"categories":[],"categories_nodes":[],"categories_segments":[],"categories_sizes":[],"default_left":[0,0,0,0,0,0,0,0,0,0,0,0,0,0,0,0,0,0,0,0,0,0,0,0,0,0,0,0,0,0,0,0,0,0,0,0,0,0,0],"id":15,"left_children":[1,-1,3,5,7,9,11,13,-1,15,17,19,21,23,-1,25,27,29,-1,31,-1,33,-1,35,37,-1,-1,-1,-1,-1,-1,-1,-1,-1,-1,-1,-1,-1,-1],"loss_changes":[7.3623867E3,0E0,1.3348877E1,8.491554E0,1.3913574E0,6.727168E0,4.256077E0,2.616516E0,0E0,7.6710596E0,3.1045122E0,1.396965E0,2.6555748E0,5.514925E0,0E0,2.5487986E0,1.9505043E0,2.0402358E0,0E0,1.2812424E-1,0E0,5.095988E-1,0E0,1.7651571E0,4.301367E0,0E0,0E0,0E0,0E0,0E0,0E0,0E0,0E0,0E0,0E0,0E0,0E0,0E0,0E0],"parents":[2147483647,0,0,2,2,3,3,4,4,5,5,6,6,7,7,9,9,10,10,11,11,12,12,13,13,15,15,16,16,17,17,19,19,21,21,23,23,24,24],"right_children":[2,-1,4,6,8,10,12,14,-1,16,18,20,22,24,-1,26,28,30,-1,32,-1,34,-1,36,38,-1,-1,-1,-1,-1,-1,-1,-1,-1,-1,-1,-1,-1,-1],"split_conditions":[1E0,-1.6510068E-1,3.875E0,3E0,3.3333334E-1,4.99E2,7.91E2,1E0,2.3542184E-1,1E0,1E0,3.03448E3,2.27E2,3E0,2.3920214E-1,1.60249E5,4.1E1,5.138889E-1,1.7869332E-1,6E0,-1.1272265E-2,7.1551E2,2.265519E-1,2.14E2,8.81E2,1.2874551E-1,-1.253504E-1,7.459244E-2,2.8623888E-1,-1.4682938E-1,1.5386228E-1,2.3718949E-1,1.5637574E-1,4.15077E-2,-1.53572E-1,1.1751927E-1,-1.2375152E-1,2.1368952E-1,-1.4891927E-1],"split_indices":[18,0,5,1,9,10,7,11,0,19,11,3,8,1,0,0,7,9,0,1,0,3,0,10,7,0,0,0,0,0,0,0,0,0,0,0,0,0,0],"split_type":[0,0,0,0,0,0,0,0,0,0,0,0,0,0,0,0,0,0,0,0,0,0,0,0,0,0,0,0,0,0,0,0,0,0,0,0,0,0,0],"sum_hessian":[2.8366518E4,2.3235605E4,5.1309126E3,1.4401175E2,4.986901E3,5.9300156E1,8.471159E1,1.12286064E2,4.8746147E3,3.67475E1,2.2552656E1,7.711647E1,7.5951242E0,5.2454723E1,5.9831337E1,1.4071485E1,2.2676016E1,1.9727287E1,2.8253684E0,7.4955154E1,2.1613152E0,5.654002E0,1.9411219E0,1.0572835E1,4.188189E1,4.3819566E0,9.689528E0,6.184736E0,1.649128E1,1.8271162E1,1.4561254E0,6.465363E1,1.0301521E1,1.0735636E0,4.5804386E0,3.1105654E0,7.46227E0,3.939451E1,2.4873796E0],"tree_param":{"num_deleted":"0","num_feature":"21","num_nodes":"39","size_leaf_vector":"1"}},{"base_weights":[-2.2231326E-1,1.7321604E-1,-5.3750366E-1,-5.460314E-1,5.614488E-1,-5.4386574E-1,-3.6113366E-1,-1.6490282E-1,-3.4915292E-1,6.2733924E-1,-4.801383E-1,-5.483407E-1,-4.9211085E-1,-1.2751676E-1,-1.6442862E-1,-5.2993786E-1,5.321122E-1,3.4016475E-1,7.3448443E-1,-8.358777E-3,-5.37036E-1,-1.6491656E-1,-5.329328E-1,-2.6086527E-1,-5.2310973E-1,2.620677E-1,-5.253202E-1,-1.6283579E-1,5.2552715E-2,-1.1733593E-1,6.679689E-1,-1.9976017E-1,5.888489E-1,7.7125627E-1,5.235811E-1,-4.0146556E-1,4.7234297E-1,-5.431745E-1,-1.0363998E-1,-3.9108732E-1,-1.6455741E-1,5.174765E-1,-1.6350992E-1,-4.2615283E-1,-5.4310566E-1,3.8607305E-1,-1.6270861E-1,-1.6407663E-1,-3.2290664E-1,2.7535957E-1,5.7079826E-2,8.907312E-2,-1.3426869E-1,1.2848014E-1,2.3610033E-1,1.9371457E-1,2.3968352E-1,2.801655E-3,2.2526999E-1,-1.3684201E-1,1.4436357E-1,3.0427885E-1,4.4007912E-2,4.4204034E-2,-1.6356555E-1,-9.861498E-2,2.0610173E-1,1.5962929E-1,-1.6343477E-1,-1.6924056E-1,2.74552E-1,-1.1417777E-2,-1.6400278E-1,-1.6353604E-1,-1.18412346E-1,2.6149355E-2,2.3760147E-1,8.918302E-2,-1.5377635E-1],"categories":[],"categories_nodes":[],"categories_segments":[],"categories_sizes":[],"default_left":[0,0,0,0,0,0,0,0,0,0,0,0,0,0,0,0,0,0,0,0,0,0,0,0,0,0,0,0,0,0,0,0,0,0,0,0,0,0,0,0,0,0,0,0,0,0,0,0,0,0,0,0,0,0,0,0,0,0,0,0,0,0,0,0,0,0,0,0,0,0,0,0,0,0,0,0,0,0,0],"id":16,"left_children":[1,3,5,7,9,11,13,-1,15,17,19,21,23,25,-1,27,29,31,33,35,37,-1,39,41,43,45,47,-1,-1,-1,49,51,53,55,57,59,61,63,65,67,-1,69,-1,71,73,75,-1,-1,77,-1,-1,-1,-1,-1,-1,-1,-1,-1,-1,-1,-1,-1,-1,-1,-1,-1,-1,-1,-1,-1,-1,-1,-1,-1,-1,-1,-1,-1,-1],"loss_changes":[3.7599521E3,3.7352979E3,1.8637207E1,3.1730957E0,5.965178E2,3.4814453E0,2.5584183E1,0E0,1.4298152E1,2.5116382E2,1.3884911E1,2.4902344E-2,9.174103E0,4.0804214E1,0E0,7.609558E-1,2.2021618E0,2.9847702E2,4.5739014E1,1.0904589E1,1.1720734E0,0E0,2.5688171E0,3.468115E1,1.9870911E0,1.3500331E1,3.925438E-1,0E0,0E0,0E0,1.479754E0,8.646664E1,4.8079895E1,1.708789E1,1.0361888E2,1.7509813E0,4.4340787E0,7.2257996E-1,1.5932759E0,1.8468884E1,0E0,1.8629286E1,0E0,9.347713E0,6.7352295E-2,1.4009165E1,0E0,0E0,1.9161432E0,0E0,0E0,0E0,0E0,0E0,0E0,0E0,0E0,0E0,0E0,0E0,0E0,0E0,0E0,0E0,0E0,0E0,0E0,0E0,0E0,0E0,0E0,0E0,0E0,0E0,0E0,0E0,0E0,0E0,0E0],"parents":[2147483647,0,0,1,1,2,2,3,3,4,4,5,5,6,6,8,8,9,9,10,10,11,11,12,12,13,13,15,15,16,16,17,17,18,18,19,19,20,20,22,22,23,23,24,24,25,25,26,26,30,30,31,31,32,32,33,33,34,34,35,35,36,36,37,37,38,38,39,39,41,41,43,43,44,44,45,45,48,48],"right_children":[2,4,6,8,10,12,14,-1,16,18,20,22,24,26,-1,28,30,32,34,36,38,-1,40,42,44,46,48,-1,-1,-1,50,52,54,56,58,60,62,64,66,68,-1,70,-1,72,74,76,-1,-1,78,-1,-1,-1,-1,-1,-1,-1,-1,-1,-1,-1,-1,-1,-1,-1,-1,-1,-1,-1,-1,-1,-1,-1,-1,-1,-1,-1,-1,-1,-1],"split_conditions":[1E0,3E0,8.31E2,8.22E2,1E0,5.82E2,1E0,-1.6490282E-1,1E0,7.4E1,3.3333334E-1,3.76E2,2E-1,7.8571427E-1,-1.6442862E-1,3.64E2,1E0,4E0,5.38E2,6.42E2,2.23296E4,-1.6491656E-1,1.5384616E-1,1E0,5E-1,1E0,2.650603E4,-1.6283579E-1,5.2552715E-2,-1.1733593E-1,8.7E1,2.14E2,5E0,1E0,4E0,3.98794E3,1.09E2,1.75E0,9.73E2,1E0,-1.6455741E-1,4E0,-1.6350992E-1,1E0,1E0,1.4E1,-1.6270861E-1,-1.6407663E-1,8.888889E-1,2.7535957E-1,5.7079826E-2,8.907312E-2,-1.3426869E-1,1.2848014E-1,2.3610033E-1,1.9371457E-1,2.3968352E-1,2.801655E-3,2.2526999E-1,-1.3684201E-1,1.4436357E-1,3.0427885E-1,4.4007912E-2,4.4204034E-2,-1.6356555E-1,-9.861498E-2,2.0610173E-1,1.5962929E-1,-1.6343477E-1,-1.6924056E-1,2.74552E-1,-1.1417777E-2,-1.6400278E-1,-1.6353604E-1,-1.18412346E-1,2.6149355E-2,2.3760147E-1,8.918302E-2,-1.5377635E-1],"split_indices":[11,1,7,7,18,7,17,0,17,7,9,7,9,9,0,5,19,1,10,7,3,0,9,17,9,18,3,0,0,0,10,10,1,19,1,3,8,5,7,17,0,1,0,17,14,1,0,0,9,0,0,0,0,0,0,0,0,0,0,0,0,0,0,0,0,0,0,0,0,0,0,0,0,0,0,0,0,0,0],"split_type":[0,0,0,0,0,0,0,0,0,0,0,0,0,0,0,0,0,0,0,0,0,0,0,0,0,0,0,0,0,0,0,0,0,0,0,0,0,0,0,0,0,0,0,0,0,0,0,0,0,0,0,0,0,0,0,0,0,0,0,0,0,0,0,0,0,0,0,0,0,0,0,0,0,0,0,0,0,0,0],"sum_hessian":[3.0158207E4,1.337478E4,1.6783428E4,4.688454E3,8.686326E3,1.6197074E4,5.8635333E2,4.6014785E3,8.697524E1,8.169899E3,5.1642737E2,1.4899233E4,1.2978408E3,2.61402E2,3.249513E2,7.250089E1,1.4474352E1,2.221073E3,5.9488257E3,5.5702774E1,4.6072458E2,1.364172E4,1.2575134E3,1.5452562E2,1.1433152E3,1.3223769E2,1.2916434E2,7.1429565E1,1.0713247E0,1.6157061E0,1.2858646E1,7.0046686E2,1.5206061E3,5.0633535E3,8.854721E2,3.073403E1,2.4968744E1,4.540404E2,6.684185E0,1.2712116E2,1.1303923E3,4.1108234E1,1.1341738E2,1.9929224E2,9.4402295E2,1.15026115E2,1.7211569E1,1.1517108E2,1.3993251E1,7.8373523E0,5.021294E0,2.3308855E2,4.673783E2,8.4167615E2,6.7892993E2,9.1934735E2,4.1440063E3,2.717526E2,6.137195E2,2.93964E1,1.3376288E0,8.578512E0,1.6390232E1,1.1302065E0,4.529102E2,5.6577973E0,1.0263875E0,1.779169E1,1.0932947E2,1.0939012E1,3.0169222E1,4.75366E1,1.5175565E2,9.287424E2,1.52806E1,6.694545E1,4.8080666E1,3.1445515E0,1.0848699E1],"tree_param":{"num_deleted":"0","num_feature":"21","num_nodes":"79","size_leaf_vector":"1"}},{"base_weights":[3.3929306E-1,-1.6511163E-1,7.2610414E-1,-2.6807916E-1,2.3509514E-1,-5.0317085E-1,1.7156202E-2,-1.6610616E-1,-3.2520446E-1,-1.6433796E-1,3.4042045E-1,1.1773814E-1,-5.379299E-1,5.551266E-1,-4.3462032E-1,1.09801434E-1,-1.2893413E-1,-1.6534266E-1,-6.938977E-2,4.6021193E-2,2.7297837E-1,-4.777107E-2,-1.5502608E-1],"categories":[],"categories_nodes":[],"categories_segments":[],"categories_sizes":[],"default_left":[0,0,0,0,0,0,0,0,0,0,0,0,0,0,0,0,0,0,0,0,0,0,0],"id":17,"left_children":[1,-1,3,5,-1,7,9,-1,11,-1,13,15,17,19,21,-1,-1,-1,-1,-1,-1,-1,-1],"loss_changes":[1.5152369E4,0E0,1.7559004E3,1.1265331E2,0E0,8.09903E0,1.3897423E2,0E0,1.9476524E1,0E0,8.07789E1,9.355028E0,4.3712234E-1,5.394139E1,2.305088E0,0E0,0E0,0E0,0E0,0E0,0E0,0E0,0E0],"parents":[2147483647,0,0,2,2,3,3,5,5,6,6,8,8,10,10,11,11,12,12,13,13,14,14],"right_children":[2,-1,4,6,-1,8,10,-1,12,-1,14,16,18,20,22,-1,-1,-1,-1,-1,-1,-1,-1],"split_conditions":[1E0,-1.6511163E-1,1E0,1E0,2.3509514E-1,6.666667E-1,3E0,-1.6610616E-1,2.4E1,-1.6433796E-1,5E0,3.03448E3,8.09E2,4.49E2,1E0,1.09801434E-1,-1.2893413E-1,-1.6534266E-1,-6.938977E-2,4.6021193E-2,2.7297837E-1,-4.777107E-2,-1.5502608E-1],"split_indices":[17,0,11,9,0,9,1,0,7,0,1,3,10,10,19,0,0,0,0,0,0,0,0],"split_type":[0,0,0,0,0,0,0,0,0,0,0,0,0,0,0,0,0,0,0,0,0,0,0],"sum_hessian":[4.4028492E4,1.3341843E4,3.068665E4,1.6788485E3,2.90078E4,9.199004E2,7.5894806E2,7.148706E2,2.0502979E2,2.7596542E2,4.8298267E2,6.666489E1,1.383649E2,3.7843124E2,1.04551414E2,4.6095074E1,2.0569815E1,1.3188477E2,6.4801435E0,1.781518E2,2.0027946E2,2.4694004E1,7.9857414E1],"tree_param":{"num_deleted":"0","num_feature":"21","num_nodes":"23","size_leaf_vector":"1"}},{"base_weights":[2.338743E-2,3.1579506E-1,-1.6504863E-1,-1.6515827E-1,6.953669E-1,7.7300656E-1,-1.6476181E-1,7.014387E-1,7.816544E-1,7.329602E-1,1.2552403E-1,2.3486374E-1,5.2054465E-1,1.815451E-1,2.3129861E-1,1.6849455E-1,-1.516309E-1,2.212001E-2,2.1807264E-1],"categories":[],"categories_nodes":[],"categories_segments":[],"categories_sizes":[],"default_left":[0,0,0,0,0,0,0,0,0,0,0,0,0,0,0,0,0,0,0],"id":18,"left_children":[1,3,-1,-1,5,7,-1,9,11,13,15,-1,17,-1,-1,-1,-1,-1,-1],"loss_changes":[5.8297656E3,7.571128E3,0E0,0E0,1.5473843E3,8.779297E0,0E0,2.9578125E1,3.8896484E0,7.0653687E0,2.3954456E1,0E0,6.005371E0,0E0,0E0,0E0,0E0,0E0,0E0],"parents":[2147483647,0,0,1,1,4,4,5,5,7,7,8,8,9,9,10,10,12,12],"right_children":[2,4,-1,-1,6,8,-1,10,12,14,16,-1,18,-1,-1,-1,-1,-1,-1],"split_conditions":[1E0,1E0,-1.6504863E-1,-1.6515827E-1,1E0,5E-1,-1.6476181E-1,7.18E2,9.45E2,1E0,4.96552E3,2.3486374E-1,7.8571427E-1,1.815451E-1,2.3129861E-1,1.6849455E-1,-1.516309E-1,2.212001E-2,2.1807264E-1],"split_indices":[17,11,0,0,18,9,0,7,7,19,3,0,9,0,0,0,0,0,0],"split_type":[0,0,0,0,0,0,0,0,0,0,0,0,0,0,0,0,0,0,0],"sum_hessian":[3.47589E4,2.3022164E4,1.1736736E4,7.0137515E3,1.6008412E4,1.5068764E4,9.396486E2,1.6333856E3,1.3435378E4,1.5483663E3,8.5019394E1,1.3370666E4,6.4711334E1,3.5898206E2,1.1893842E3,5.0336372E1,3.4683018E1,2.0873709E1,4.3837627E1],"tree_param":{"num_deleted":"0","num_feature":"21","num_nodes":"19","size_leaf_vector":"1"}},{"base_weights":[-6.598046E-3,5.034299E-1,-5.454064E-1,6.656356E-1,-4.093846E-1,-2.9963508E-1,-5.466284E-1,7.1350616E-1,-3.6156362E-1,-1.5434605E-1,-5.303998E-1,-4.9917695E-1,3.524929E-1,-5.479843E-1,-4.7927856E-1,7.8265196E-1,3.6641672E-1,4.980359E-1,-5.4076624E-1,5.2794725E-2,-5.3504586E-1,-4.331469E-1,-5.44402E-1,-5.265681E-1,6.438785E-2,6.0756093E-1,-1.3626498E-1,-5.0616145E-1,-1.6473746E-1,-2.243466E-1,-1.643516E-1,2.3509277E-1,7.216984E-1,5.637787E-1,-1.8562041E-1,6.486853E-1,-1.5560932E-1,9.329522E-3,-5.4731077E-1,2.6168227E-1,-5.270498E-1,-5.439973E-1,-7.3976606E-2,-4.8509794E-1,1.25525715E-2,-1.6860063E-1,-1.6368201E-1,-1.6245791E-1,-2.9356682E-1,-1.0244547E-1,1.4252949E-1,8.9443135E-1,-1.270738E-1,-1.623959E-1,-3.528098E-1,5.853672E-1,-5.246759E-1,2.3290084E-1,2.3182968E-2,2.0588572E-1,3.889897E-2,1.22821935E-1,-1.1234452E-1,2.2594032E-1,7.2349004E-2,1.4904062E-1,-1.3205425E-1,-9.767887E-2,-1.6474034E-1,2.0255958E-1,-3.440388E-2,-1.6346747E-1,6.896599E-2,-1.17571585E-1,-1.6510594E-1,1.7609243E-1,-1.381489E-1,1.7949814E-2,-1.52141E-1,1.7825976E-1,-1.5562063E-1,-1.3627553E-1,1.7063695E-1,6.370832E-2,-1.3212411E-1,3.0646563E-1,-8.885074E-2,6.300359E-2,-1.6350554E-1,3.1614298E-1,-1.4227043E-1,-1.625276E-1,4.1313976E-2],"categories":[],"categories_nodes":[],"categories_segments":[],"categories_sizes":[],"default_left":[0,0,0,0,0,0,0,0,0,0,0,0,0,0,0,0,0,0,0,0,0,0,0,0,0,0,0,0,0,0,0,0,0,0,0,0,0,0,0,0,0,0,0,0,0,0,0,0,0,0,0,0,0,0,0,0,0,0,0,0,0,0,0,0,0,0,0,0,0,0,0,0,0,0,0,0,0,0,0,0,0,0,0,0,0,0,0,0,0,0,0,0,0],"id":19,"left_children":[1,3,5,7,9,11,13,15,17,19,21,23,25,27,29,31,33,35,37,39,41,43,45,47,49,51,-1,53,-1,55,-1,-1,57,59,61,63,-1,65,67,69,71,73,75,77,79,81,-1,-1,83,-1,-1,85,-1,-1,87,89,91,-1,-1,-1,-1,-1,-1,-1,-1,-1,-1,-1,-1,-1,-1,-1,-1,-1,-1,-1,-1,-1,-1,-1,-1,-1,-1,-1,-1,-1,-1,-1,-1,-1,-1,-1,-1],"loss_changes":[9.43938E3,2.6129795E3,4.8530273E0,7.370449E2,8.2111755E1,1.121767E1,1.2548828E0,3.4331445E2,1.0314747E2,6.772143E1,2.2231445E0,1.0432587E0,4.487342E0,4.9853516E-1,5.748909E0,1.5576172E-1,2.5943274E2,1.8063114E1,1.9964142E0,6.7583626E1,1.2085495E0,5.381542E0,6.208801E-1,5.8734894E-2,8.159799E-1,5.1051936E0,0E0,2.2087097E0,0E0,1.8033604E1,0E0,0E0,7.1069336E0,9.3172E1,7.068243E1,4.127716E0,0E0,1.8591368E0,4.222107E-2,6.389185E1,2.1213837E0,7.108307E-2,2.0381086E0,2.5276718E0,8.098698E0,1.6229836E0,0E0,0E0,5.357354E-1,0E0,0E0,2.2431097E0,0E0,0E0,9.405119E0,1.0523632E1,6.822386E-1,0E0,0E0,0E0,0E0,0E0,0E0,0E0,0E0,0E0,0E0,0E0,0E0,0E0,0E0,0E0,0E0,0E0,0E0,0E0,0E0,0E0,0E0,0E0,0E0,0E0,0E0,0E0,0E0,0E0,0E0,0E0,0E0,0E0,0E0,0E0,0E0],"parents":[2147483647,0,0,1,1,2,2,3,3,4,4,5,5,6,6,7,7,8,8,9,9,10,10,11,11,12,12,13,13,14,14,15,15,16,16,17,17,18,18,19,19,20,20,21,21,22,22,23,23,24,24,25,25,27,27,29,29,32,32,33,33,34,34,35,35,37,37,38,38,39,39,40,40,41,41,42,42,43,43,44,44,45,45,48,48,51,51,54,54,55,55,56,56],"right_children":[2,4,6,8,10,12,14,16,18,20,22,24,26,28,30,32,34,36,38,40,42,44,46,48,50,52,-1,54,-1,56,-1,-1,58,60,62,64,-1,66,68,70,72,74,76,78,80,82,-1,-1,84,-1,-1,86,-1,-1,88,90,92,-1,-1,-1,-1,-1,-1,-1,-1,-1,-1,-1,-1,-1,-1,-1,-1,-1,-1,-1,-1,-1,-1,-1,-1,-1,-1,-1,-1,-1,-1,-1,-1,-1,-1,-1,-1],"split_conditions":[1E0,4E0,6.666667E-1,1E0,9.4E1,1.09052E3,1E0,3E0,7.692308E-2,5E0,1.99E2,1E0,3E0,1.75E0,7.692308E-2,8.22E2,8.7E1,3E0,3.875E0,1E0,1E0,1E0,7.7155E2,1.05172E3,3.9008502E2,1E0,-1.3626498E-1,5.0333332E1,-1.6473746E-1,1E0,-1.643516E-1,2.3509277E-1,1E0,1E0,1E0,2.18E2,-1.5560932E-1,1E0,6.8E0,1E0,1E0,1.5E0,2.27672E3,1E0,5E0,2.8E2,-1.6368201E-1,-1.6245791E-1,1.05905E3,-1.0244547E-1,1.4252949E-1,7.692308E-2,-1.270738E-1,-1.623959E-1,1E0,3E0,9.25E1,2.3290084E-1,2.3182968E-2,2.0588572E-1,3.889897E-2,1.22821935E-1,-1.1234452E-1,2.2594032E-1,7.2349004E-2,1.4904062E-1,-1.3205425E-1,-9.767887E-2,-1.6474034E-1,2.0255958E-1,-3.440388E-2,-1.6346747E-1,6.896599E-2,-1.17571585E-1,-1.6510594E-1,1.7609243E-1,-1.381489E-1,1.7949814E-2,-1.52141E-1,1.7825976E-1,-1.5562063E-1,-1.3627553E-1,1.7063695E-1,6.370832E-2,-1.3212411E-1,3.0646563E-1,-8.885074E-2,6.300359E-2,-1.6350554E-1,3.1614298E-1,-1.4227043E-1,-1.625276E-1,4.1313976E-2],"split_indices":[11,1,5,18,7,2,14,1,9,1,7,14,1,5,9,7,8,1,5,17,20,14,3,2,2,19,0,8,0,19,0,0,17,17,19,7,0,19,5,19,20,5,3,5,1,10,0,0,2,0,0,9,0,0,17,1,8,0,0,0,0,0,0,0,0,0,0,0,0,0,0,0,0,0,0,0,0,0,0,0,0,0,0,0,0,0,0,0,0,0,0,0,0],"split_type":[0,0,0,0,0,0,0,0,0,0,0,0,0,0,0,0,0,0,0,0,0,0,0,0,0,0,0,0,0,0,0,0,0,0,0,0,0,0,0,0,0,0,0,0,0,0,0,0,0,0,0,0,0,0,0,0,0,0,0,0,0,0,0,0,0,0,0,0,0,0,0,0,0,0,0,0,0,0,0,0,0,0,0,0,0,0,0,0,0,0,0,0,0],"sum_hessian":[3.434709E4,1.7644826E4,1.6702262E4,1.4982695E4,2.6621309E3,8.385347E1,1.6618408E4,1.431584E4,6.668556E2,8.5741376E2,1.8047173E3,6.438662E1,1.9466846E1,1.6283457E4,3.3495157E2,1.1936617E4,2.379223E3,1.147316E2,5.5212396E2,5.558397E2,3.01574E2,2.311553E2,1.5735619E3,6.1464867E1,2.9217515E0,1.4977939E1,4.4889083E0,4.4408295E2,1.5839374E4,7.189422E1,2.6305734E2,1.1734067E4,2.0254926E2,1.7526143E3,6.2660864E2,1.00240906E2,1.4490696E1,6.4864206E0,5.456376E2,4.090347E2,1.4680504E2,2.9565417E2,5.91981E0,2.0694522E2,2.421008E1,5.478508E0,1.5680834E3,5.6512714E1,4.9521527E0,1.5543052E0,1.3674464E0,1.1821652E1,3.1562862E0,3.5920087E2,8.488207E1,1.9194664E1,5.269956E1,1.8652951E2,1.6019737E1,1.3664285E3,3.8618585E2,1.5068678E2,4.7592184E2,7.9115326E1,2.112558E1,3.0613382E0,3.4250824E0,5.916166E0,5.397214E2,1.945189E2,2.145158E2,1.4369806E2,3.106982E0,1.437318E1,2.81281E2,1.9930556E0,3.9267545E0,7.9775066E0,1.9896771E2,1.1500777E1,1.2709302E1,4.2255745E0,1.2529335E0,1.0136634E0,3.9384894E0,1.0809504E1,1.0121484E0,2.1584915E1,6.329716E1,1.3314072E1,5.880593E0,5.1552166E1,1.1473929E0],"tree_param":{"num_deleted":"0","num_feature":"21","num_nodes":"93","size_leaf_vector":"1"}},{"base_weights":[-2.9815602E-1,-1.6130416E-1,6.798646E-1,4.0471146E-1,6.8807954E-1,1.6124214E-1,5.7451415E-1,5.6661797E-1,2.0724645E-1,3.7457517E-1,-2.2919843E-1,6.775771E-1,1.4614879E-1,5.834657E-1,-1.218733E-1,-1.3132371E-1,6.611236E-1,-3.6486349E-1,1.5431441E-1,2.090915E-1,1.9088025E-1,5.5756253E-1,-4.368586E-1,4.387544E-1,2.1007685E-1,1.0851713E-1,-1.1476939E-1,6.1318085E-2,2.4100575E-1,-1.5387167E-1,6.288439E-2,-1.0520985E-1,1.83387E-1,1.8952055E-1,-4.0151174E-3,4.483717E-2,-1.8094605E-1,-3.6082685E-2,1.7420647E-1],"categories":[],"categories_nodes":[],"categories_segments":[],"categories_sizes":[],"default_left":[0,0,0,0,0,0,0,0,0,0,0,0,0,0,0,0,0,0,0,0,0,0,0,0,0,0,0,0,0,0,0,0,0,0,0,0,0,0,0],"id":20,"left_children":[1,-1,3,5,7,9,11,13,-1,15,17,19,21,23,-1,25,27,29,-1,-1,31,33,35,37,-1,-1,-1,-1,-1,-1,-1,-1,-1,-1,-1,-1,-1,-1,-1],"loss_changes":[5.302565E3,0E0,9.787598E0,5.344921E0,1.0480957E0,4.7029305E0,3.3046455E0,1.8922844E0,0E0,5.3381815E0,2.226021E0,4.5096016E-1,4.1356544E0,1.377449E0,0E0,1.8643483E0,1.3488455E0,1.6105754E0,0E0,0E0,1.0677733E0,4.2993474E-1,7.9937136E-1,3.8146553E0,0E0,0E0,0E0,0E0,0E0,0E0,0E0,0E0,0E0,0E0,0E0,0E0,0E0,0E0,0E0],"parents":[2147483647,0,0,2,2,3,3,4,4,5,5,6,6,7,7,9,9,10,10,11,11,12,12,13,13,15,15,16,16,17,17,20,20,21,21,22,22,23,23],"right_children":[2,-1,4,6,8,10,12,14,-1,16,18,20,22,24,-1,26,28,30,-1,-1,32,34,36,38,-1,-1,-1,-1,-1,-1,-1,-1,-1,-1,-1,-1,-1,-1,-1],"split_conditions":[1E0,-1.6130416E-1,3.875E0,3E0,3.3333334E-1,4.99E2,6E0,9.93E2,2.0724645E-1,1E0,1E0,8.22E2,6.55E1,1E0,-1.218733E-1,1.60249E5,4.1E1,7.692308E-2,1.5431441E-1,2.090915E-1,2.27E2,4.12E2,9.2242E2,3E0,2.1007685E-1,1.0851713E-1,-1.1476939E-1,6.1318085E-2,2.4100575E-1,-1.5387167E-1,6.288439E-2,-1.0520985E-1,1.83387E-1,1.8952055E-1,-4.0151174E-3,4.483717E-2,-1.8094605E-1,-3.6082685E-2,1.7420647E-1],"split_indices":[18,0,5,1,9,10,1,7,0,19,11,7,8,11,0,0,7,9,0,0,8,7,3,1,0,0,0,0,0,0,0,0,0,0,0,0,0,0,0],"split_type":[0,0,0,0,0,0,0,0,0,0,0,0,0,0,0,0,0,0,0,0,0,0,0,0,0,0,0,0,0,0,0,0,0,0,0,0,0,0,0],"sum_hessian":[2.2632838E4,1.81807E4,4.4521377E3,1.3052704E2,4.3216104E3,5.4431194E1,7.609584E1,9.998885E1,4.2216216E3,3.5225143E1,1.9206053E1,6.0869194E1,1.5226646E1,9.868021E1,1.3086517E0,1.2933269E1,2.2291876E1,1.667334E1,2.532712E0,5.8121063E1,2.7481291E0,8.952638E0,6.2740088E0,4.6196453E1,5.248375E1,4.2172947E0,8.715974E0,5.8721423E0,1.6419733E1,1.3342246E1,3.331094E0,1.2734551E0,1.4746739E0,7.829078E0,1.123559E0,1.4086609E0,4.865348E0,9.384927E0,3.6811527E1],"tree_param":{"num_deleted":"0","num_feature":"21","num_nodes":"39","size_leaf_vector":"1"}},{"base_weights":[-2.0561504E-1,1.5751457E-1,-5.223437E-1,-5.32639E-1,4.8131543E-1,-5.3284687E-1,-3.8368428E-1,-1.610671E-1,-3.156776E-1,5.3343207E-1,-4.549175E-1,-1.6067478E-1,-4.8926425E-1,-1.8860595E-1,-1.6083375E-1,-5.120468E-1,4.2392275E-1,3.0208498E-1,6.4349204E-1,1.1497746E-2,-5.192537E-1,-2.683688E-1,-5.1845986E-1,3.2783085E-1,-4.512506E-1,-1.5847981E-1,6.0126517E-2,-7.137569E-2,6.4661425E-1,-1.1023591E-1,4.9723256E-1,6.806776E-1,4.9374577E-1,-3.334834E-1,4.685916E-1,-5.2702093E-1,-3.5297874E-2,3.804613E-1,-1.5858701E-1,-5.2381206E-1,-1.8698402E-1,5.9634686E-2,8.9827955E-1,-5.2055055E-1,-1.2098181E-1,-1.3257748E-1,8.6433195E-2,1.220073E-3,2.5406483E-1,6.729757E-2,-1.3590145E-1,1.0718195E-1,2.0531556E-1,1.7233187E-1,2.1120413E-1,4.5725763E-2,2.0051455E-1,-1.2756373E-1,1.9160838E-1,-9.665865E-2,2.08447E-1,4.26548E-2,-1.588673E-1,1.5052839E-1,-1.2794077E-1,-1.1358321E-1,3.4679848E-1,-1.3927487E-1,-1.6084993E-1,2.5014347E-1,-1.4509517E-1,1.6024387E-1,-6.703218E-2,2.8967115E-1,-1.0814855E-1,-1.5990816E-1,-9.2167936E-2,9.0009205E-2,-1.3556542E-1],"categories":[],"categories_nodes":[],"categories_segments":[],"categories_sizes":[],"default_left":[0,0,0,0,0,0,0,0,0,0,0,0,0,0,0,0,0,0,0,0,0,0,0,0,0,0,0,0,0,0,0,0,0,0,0,0,0,0,0,0,0,0,0,0,0,0,0,0,0,0,0,0,0,0,0,0,0,0,0,0,0,0,0,0,0,0,0,0,0,0,0,0,0,0,0,0,0,0,0],"id":21,"left_children":[1,3,5,7,9,11,13,-1,15,17,19,-1,21,23,-1,25,27,29,31,33,35,37,39,41,43,-1,-1,45,47,49,51,53,55,57,59,61,63,65,-1,67,69,71,73,75,77,-1,-1,-1,-1,-1,-1,-1,-1,-1,-1,-1,-1,-1,-1,-1,-1,-1,-1,-1,-1,-1,-1,-1,-1,-1,-1,-1,-1,-1,-1,-1,-1,-1,-1],"loss_changes":[2.8286133E3,2.5608088E3,1.892627E1,3.2059326E0,3.8080603E2,1.1933594E0,2.7509216E1,0E0,1.07837715E1,1.8793652E2,1.2363449E1,0E0,4.5857544E0,5.560123E1,0E0,7.7546406E-1,1.7901425E0,1.9186246E2,2.7538818E1,8.182212E0,1.3418427E0,1.499353E1,1.0482178E0,2.1121159E1,6.149296E0,0E0,0E0,9.0054977E-1,1.4129367E0,8.801351E1,4.2141785E1,9.53064E0,5.947281E1,2.9103336E0,4.214667E0,6.7985535E-1,1.640153E0,1.5543411E1,0E0,2.1850586E-1,3.9830275E0,1.290872E1,4.0911674E0,4.3255234E-1,6.8753057E0,0E0,0E0,0E0,0E0,0E0,0E0,0E0,0E0,0E0,0E0,0E0,0E0,0E0,0E0,0E0,0E0,0E0,0E0,0E0,0E0,0E0,0E0,0E0,0E0,0E0,0E0,0E0,0E0,0E0,0E0,0E0,0E0,0E0,0E0],"parents":[2147483647,0,0,1,1,2,2,3,3,4,4,5,5,6,6,8,8,9,9,10,10,12,12,13,13,15,15,16,16,17,17,18,18,19,19,20,20,21,21,22,22,23,23,24,24,27,27,28,28,29,29,30,30,31,31,32,32,33,33,34,34,35,35,36,36,37,37,39,39,40,40,41,41,42,42,43,43,44,44],"right_children":[2,4,6,8,10,12,14,-1,16,18,20,-1,22,24,-1,26,28,30,32,34,36,38,40,42,44,-1,-1,46,48,50,52,54,56,58,60,62,64,66,-1,68,70,72,74,76,78,-1,-1,-1,-1,-1,-1,-1,-1,-1,-1,-1,-1,-1,-1,-1,-1,-1,-1,-1,-1,-1,-1,-1,-1,-1,-1,-1,-1,-1,-1,-1,-1,-1,-1],"split_conditions":[1E0,3E0,7.18E2,8.22E2,1E0,5.48E2,1E0,-1.610671E-1,1E0,1.16E2,3.3333334E-1,-1.6067478E-1,5.7777777E0,6.25E-1,-1.6083375E-1,3.64E2,7.692308E-2,4E0,4.33E2,6E0,2.23296E4,1E0,1E0,8.58879E3,1.776E4,-1.5847981E-1,6.0126517E-2,6.7241E2,5.3846154E0,3.69E2,5E0,1E0,4E0,9.32E2,3.53E2,1.75E0,8.4E1,4.20156E3,-1.5858701E-1,4.6666667E-1,5.9090906E-1,2.5E-1,1E0,9.73E2,8.181818E-1,-1.3257748E-1,8.6433195E-2,1.220073E-3,2.5406483E-1,6.729757E-2,-1.3590145E-1,1.0718195E-1,2.0531556E-1,1.7233187E-1,2.1120413E-1,4.5725763E-2,2.0051455E-1,-1.2756373E-1,1.9160838E-1,-9.665865E-2,2.08447E-1,4.26548E-2,-1.588673E-1,1.5052839E-1,-1.2794077E-1,-1.1358321E-1,3.4679848E-1,-1.3927487E-1,-1.6084993E-1,2.5014347E-1,-1.4509517E-1,1.6024387E-1,-6.703218E-2,2.8967115E-1,-1.0814855E-1,-1.5990816E-1,-9.2167936E-2,9.0009205E-2,-1.3556542E-1],"split_indices":[11,1,7,7,18,7,17,0,17,7,9,0,5,9,0,5,9,1,10,1,3,17,14,3,3,0,0,2,4,10,1,19,1,7,7,5,5,3,0,9,9,9,18,7,9,0,0,0,0,0,0,0,0,0,0,0,0,0,0,0,0,0,0,0,0,0,0,0,0,0,0,0,0,0,0,0,0,0,0],"split_type":[0,0,0,0,0,0,0,0,0,0,0,0,0,0,0,0,0,0,0,0,0,0,0,0,0,0,0,0,0,0,0,0,0,0,0,0,0,0,0,0,0,0,0,0,0,0,0,0,0,0,0,0,0,0,0,0,0,0,0,0,0,0,0,0,0,0,0,0,0,0,0,0,0,0,0,0,0,0,0],"sum_hessian":[2.459202E4,1.145703E4,1.3134989E4,3.6585344E3,7.7984956E3,1.2207456E4,9.2753314E2,3.5867783E3,7.175603E1,7.3876807E3,4.1081494E2,1.1475818E4,7.3163824E2,4.0782898E2,5.1970416E2,5.694452E1,1.4811509E1,2.3827864E3,5.0048945E3,4.9897377E1,3.6091757E2,8.6601105E1,6.450372E2,1.37404E2,2.70425E2,5.592983E1,1.0146887E0,4.8046823E0,1.0006827E1,7.656033E2,1.617183E3,4.0064517E3,9.9844275E2,2.8590088E1,2.130729E1,3.5512897E2,5.7886167E0,2.4660103E1,6.1941E1,6.342164E2,1.0820772E1,9.421392E1,4.3190086E1,2.230471E2,4.7377865E1,2.253012E0,2.55167E0,2.6202493E0,7.386578E0,3.8761523E2,3.7798804E2,9.2691327E2,6.902698E2,7.261692E2,3.2802827E3,3.3857327E2,6.598695E2,2.663919E1,1.9508985E0,4.6453624E0,1.6661928E1,1.1331964E0,3.5399576E2,2.3202763E0,3.4683406E0,1.2720963E1,1.193914E1,1.1557675E2,5.1863965E2,2.0289133E0,8.79186E0,3.4871994E1,5.9341927E1,4.121952E1,1.9705653E0,2.0930678E2,1.37403345E1,2.0891106E1,2.648676E1],"tree_param":{"num_deleted":"0","num_feature":"21","num_nodes":"79","size_leaf_vector":"1"}},{"base_weights":[3.0712956E-1,-1.6130039E-1,6.3996273E-1,-2.3444216E-1,2.0704003E-1,-4.8419967E-1,4.1568276E-2,-1.6256738E-1,-2.958524E-1,-1.60369E-1,3.068614E-1,8.459542E-2,-5.2226853E-1,5.500144E-1,-1.9085237E-1,-1.165221E-1,9.913169E-2,-1.5917063E-1,6.7354282E-3,2.0263915E-1,-1.14117555E-1,4.9747195E-2,-1.4315073E-1],"categories":[],"categories_nodes":[],"categories_segments":[],"categories_sizes":[],"default_left":[0,0,0,0,0,0,0,0,0,0,0,0,0,0,0,0,0,0,0,0,0,0,0],"id":22,"left_children":[1,-1,3,5,-1,7,9,-1,11,-1,13,15,17,19,21,-1,-1,-1,-1,-1,-1,-1,-1],"loss_changes":[1.0391248E4,0E0,1.1631826E3,9.924078E1,0E0,8.050858E0,1.0480814E2,0E0,1.5497104E1,0E0,5.6914463E1,8.011407E0,5.210209E-1,3.709503E1,1.5888326E1,0E0,0E0,0E0,0E0,0E0,0E0,0E0,0E0],"parents":[2147483647,0,0,2,2,3,3,5,5,6,6,8,8,10,10,11,11,12,12,13,13,14,14],"right_children":[2,-1,4,6,-1,8,10,-1,12,-1,14,16,18,20,22,-1,-1,-1,-1,-1,-1,-1,-1],"split_conditions":[1E0,-1.6130039E-1,1E0,1E0,2.0704003E-1,6.666667E-1,3E0,-1.6256738E-1,2.4E1,-1.60369E-1,1.4E1,6.25E0,1E0,6E0,4E0,-1.165221E-1,9.913169E-2,-1.5917063E-1,6.7354282E-3,2.0263915E-1,-1.14117555E-1,4.9747195E-2,-1.4315073E-1],"split_indices":[17,0,11,9,0,9,1,0,7,0,7,4,20,1,1,0,0,0,0,0,0,0,0],"split_type":[0,0,0,0,0,0,0,0,0,0,0,0,0,0,0,0,0,0,0,0,0,0,0],"sum_hessian":[3.695408E4,1.0444139E4,2.650994E4,1.4383223E3,2.5071617E4,7.546747E2,6.836476E2,5.762806E2,1.7839412E2,2.152275E2,4.6842007E2,6.679112E1,1.11603E2,3.1461368E2,1.5380638E2,2.2644075E1,4.4147045E1,1.0995355E2,1.6494434E0,2.774749E2,3.713876E1,6.867544E1,8.513094E1],"tree_param":{"num_deleted":"0","num_feature":"21","num_nodes":"23","size_leaf_vector":"1"}},{"base_weights":[2.0450486E-2,2.854577E-1,-1.6126382E-1,-1.6134131E-1,6.133826E-1,6.7778015E-1,-1.6089122E-1,5.9821546E-1,6.876943E-1,6.4531666E-1,2.4672586E-1,6.8898076E-1,4.301325E-1,1.5185913E-1,2.0675811E-1,1.6783741E-1,-9.776872E-2,2.0685355E-1,1.7721622E-1,2.533794E-2,1.9254793E-1],"categories":[],"categories_nodes":[],"categories_segments":[],"categories_sizes":[],"default_left":[0,0,0,0,0,0,0,0,0,0,0,0,0,0,0,0,0,0,0,0,0],"id":23,"left_children":[1,3,-1,-1,5,7,-1,9,11,13,15,17,19,-1,-1,-1,-1,-1,-1,-1,-1],"loss_changes":[4.213653E3,5.2160054E3,0E0,0E0,1.023313E3,9.909668E0,0E0,2.3969055E1,3.5566406E0,7.4923706E0,3.1313133E1,1.9628906E-1,4.369275E0,0E0,0E0,0E0,0E0,0E0,0E0,0E0,0E0],"parents":[2147483647,0,0,1,1,4,4,5,5,7,7,8,8,9,9,10,10,11,11,12,12],"right_children":[2,4,-1,-1,6,8,-1,10,12,14,16,18,20,-1,-1,-1,-1,-1,-1,-1,-1],"split_conditions":[1E0,1E0,-1.6126382E-1,-1.6134131E-1,1E0,5E-1,-1.6089122E-1,5.15E2,9.45E2,1E0,5.06854E3,9E2,8.181818E-1,1.5185913E-1,2.0675811E-1,1.6783741E-1,-9.776872E-2,2.0685355E-1,1.7721622E-1,2.533794E-2,1.9254793E-1],"split_indices":[17,11,0,0,18,9,0,7,7,19,3,7,9,0,0,0,0,0,0,0,0],"split_type":[0,0,0,0,0,0,0,0,0,0,0,0,0,0,0,0,0,0,0,0,0],"sum_hessian":[2.8493021E4,1.93186E4,9.174422E3,5.502877E3,1.3815723E4,1.3083296E4,7.3242615E2,1.4564102E3,1.1626886E4,1.28357E3,1.7284018E2,1.1567437E4,5.944928E1,3.1076694E2,9.7280304E2,1.1180298E2,6.103721E1,1.1499265E4,6.817193E1,2.3110825E1,3.6338455E1],"tree_param":{"num_deleted":"0","num_feature":"21","num_nodes":"21","size_leaf_vector":"1"}},{"base_weights":[-4.4996054E-3,4.4428107E-1,-5.316232E-1,5.807616E-1,-3.7380958E-1,-2.5213253E-1,-5.331009E-1,6.199971E-1,-3.4118125E-1,-1.1948659E-1,-5.1348126E-1,-4.741181E-1,3.6017847E-1,-5.3471524E-1,-4.5406967E-1,6.8907714E-1,3.0630895E-1,4.2952144E-1,-5.259281E-1,5.992596E-2,-5.1622975E-1,-3.9785445E-1,-5.3005594E-1,-5.07752E-1,1.04925334E-1,5.733331E-1,-1.2830184E-1,-4.8219207E-1,-1.6085257E-1,-1.7464504E-1,-1.6037211E-1,2.0694904E-1,6.095447E-1,-1.0284928E-2,5.806493E-1,5.4934776E-1,-1.4930552E-1,-2.3307155E-3,-5.3374743E-1,2.3389405E-1,-5.026652E-1,-5.272167E-1,-2.5606576E-2,-1.3119261E-1,-5.056708E-1,-1.1740262E-1,-5.3157455E-1,-1.579144E-1,-2.4495184E-1,1.5131958E-1,-1.0256789E-1,7.932709E-1,-1.1767923E-1,-3.2636982E-1,-1.6099517E-1,5.624712E-1,-5.0498307E-1,2.026066E-1,-6.225205E-2,1.5951115E-1,-8.0236316E-2,2.013134E-1,7.397999E-2,1.8767293E-1,2.7935456E-2,1.19040534E-1,-1.3073379E-1,-8.339209E-2,-1.6081512E-1,-9.864809E-2,1.2954563E-1,-6.724943E-2,-1.6961804E-1,-1.0598194E-1,-1.6053338E-1,1.6896552E-1,-1.2841289E-1,-1.3785726E-1,8.8033035E-2,-1.582016E-1,-1.1271278E-3,-1.282093E-1,1.6052571E-1,-1.6090152E-1,-1.4321807E-1,5.9163123E-2,-1.231624E-1,7.965556E-2,2.7111784E-1,-1.5968205E-1,3.6830314E-2,2.8009656E-1,-1.3527216E-1,-1.578824E-1,4.8005246E-2],"categories":[],"categories_nodes":[],"categories_segments":[],"categories_sizes":[],"default_left":[0,0,0,0,0,0,0,0,0,0,0,0,0,0,0,0,0,0,0,0,0,0,0,0,0,0,0,0,0,0,0,0,0,0,0,0,0,0,0,0,0,0,0,0,0,0,0,0,0,0,0,0,0,0,0,0,0,0,0,0,0,0,0,0,0,0,0,0,0,0,0,0,0,0,0,0,0,0,0,0,0,0,0,0,0,0,0,0,0,0,0,0,0,0,0],"id":24,"left_children":[1,3,5,7,9,11,13,15,17,19,21,23,25,27,29,31,33,35,37,39,41,43,45,47,49,51,-1,53,-1,55,-1,-1,57,59,61,63,-1,65,67,69,71,73,75,77,79,81,83,-1,85,-1,-1,87,-1,89,-1,91,93,-1,-1,-1,-1,-1,-1,-1,-1,-1,-1,-1,-1,-1,-1,-1,-1,-1,-1,-1,-1,-1,-1,-1,-1,-1,-1,-1,-1,-1,-1,-1,-1,-1,-1,-1,-1,-1,-1],"loss_changes":[6.7089863E3,1.7105779E3,5.251953E0,4.7511426E2,7.775888E1,9.751854E0,1.4121094E0,2.7267725E2,7.662412E1,5.54051E1,2.4987488E0,1.0692129E0,3.4902756E0,7.158203E-1,5.8973083E0,1.977539E-1,1.9756052E2,1.1861591E1,1.7726059E0,5.2634926E1,1.2928772E0,5.1452293E0,7.1066284E-1,1.13269806E-1,8.3151716E-1,3.6318092E0,0E0,2.8253403E0,0E0,1.5149719E1,0E0,0E0,5.8064194E0,1.4746129E2,3.6632294E1,3.1704884E0,0E0,1.4495857E0,1.0243988E-1,4.586567E1,2.0928726E0,1.3640594E-1,1.748022E0,7.5994124E0,1.3979988E0,1.403022E0,6.1065674E-2,0E0,4.576839E-1,0E0,0E0,5.217066E-1,0E0,8.769843E0,0E0,7.7055116E0,6.885843E-1,0E0,0E0,0E0,0E0,0E0,0E0,0E0,0E0,0E0,0E0,0E0,0E0,0E0,0E0,0E0,0E0,0E0,0E0,0E0,0E0,0E0,0E0,0E0,0E0,0E0,0E0,0E0,0E0,0E0,0E0,0E0,0E0,0E0,0E0,0E0,0E0,0E0,0E0],"parents":[2147483647,0,0,1,1,2,2,3,3,4,4,5,5,6,6,7,7,8,8,9,9,10,10,11,11,12,12,13,13,14,14,15,15,16,16,17,17,18,18,19,19,20,20,21,21,22,22,23,23,24,24,25,25,27,27,29,29,32,32,33,33,34,34,35,35,37,37,38,38,39,39,40,40,41,41,42,42,43,43,44,44,45,45,46,46,48,48,51,51,53,53,55,55,56,56],"right_children":[2,4,6,8,10,12,14,16,18,20,22,24,26,28,30,32,34,36,38,40,42,44,46,48,50,52,-1,54,-1,56,-1,-1,58,60,62,64,-1,66,68,70,72,74,76,78,80,82,84,-1,86,-1,-1,88,-1,90,-1,92,94,-1,-1,-1,-1,-1,-1,-1,-1,-1,-1,-1,-1,-1,-1,-1,-1,-1,-1,-1,-1,-1,-1,-1,-1,-1,-1,-1,-1,-1,-1,-1,-1,-1,-1,-1,-1,-1,-1],"split_conditions":[1E0,4E0,6.666667E-1,1E0,9.9E1,1.09052E3,1E0,3E0,7.692308E-2,5E0,1.99E2,1E0,3E0,1.75E0,7.692308E-2,8.63E2,4.29E2,3E0,3.875E0,1E0,1E0,1E0,7.7155E2,1.05172E3,5.05E2,1E0,-1.2830184E-1,1E0,-1.6085257E-1,1E0,-1.6037211E-1,2.0694904E-1,1E0,1E0,1E0,3.58E2,-1.4930552E-1,6E0,6.8E0,3.08E2,4.3333335E0,1.5E0,6E0,4.49E2,8.78E2,2.8E2,1E0,-1.579144E-1,6.4379E4,1.5131958E-1,-1.0256789E-1,4.94E2,-1.1767923E-1,1.55E1,-1.6099517E-1,3E0,4.67E2,2.026066E-1,-6.225205E-2,1.5951115E-1,-8.0236316E-2,2.013134E-1,7.397999E-2,1.8767293E-1,2.7935456E-2,1.19040534E-1,-1.3073379E-1,-8.339209E-2,-1.6081512E-1,-9.864809E-2,1.2954563E-1,-6.724943E-2,-1.6961804E-1,-1.0598194E-1,-1.6053338E-1,1.6896552E-1,-1.2841289E-1,-1.3785726E-1,8.8033035E-2,-1.582016E-1,-1.1271278E-3,-1.282093E-1,1.6052571E-1,-1.6090152E-1,-1.4321807E-1,5.9163123E-2,-1.231624E-1,7.965556E-2,2.7111784E-1,-1.5968205E-1,3.6830314E-2,2.8009656E-1,-1.3527216E-1,-1.578824E-1,4.8005246E-2],"split_indices":[11,1,5,18,7,2,14,1,9,1,7,14,1,5,9,7,10,1,5,17,20,19,3,2,10,19,0,19,0,19,0,0,17,19,17,7,0,7,5,10,5,5,1,10,10,10,14,0,0,0,0,10,0,8,0,1,7,0,0,0,0,0,0,0,0,0,0,0,0,0,0,0,0,0,0,0,0,0,0,0,0,0,0,0,0,0,0,0,0,0,0,0,0,0,0],"split_type":[0,0,0,0,0,0,0,0,0,0,0,0,0,0,0,0,0,0,0,0,0,0,0,0,0,0,0,0,0,0,0,0,0,0,0,0,0,0,0,0,0,0,0,0,0,0,0,0,0,0,0,0,0,0,0,0,0,0,0,0,0,0,0,0,0,0,0,0,0,0,0,0,0,0,0,0,0,0,0,0,0,0,0,0,0,0,0,0,0,0,0,0,0,0,0],"sum_hessian":[2.835827E4,1.5317481E4,1.3040788E4,1.3127702E4,2.1897793E3,6.948844E1,1.29713E4,1.2592141E4,5.355614E2,7.769379E2,1.4128416E3,5.1164936E1,1.8323507E1,1.2705986E4,2.653136E2,1.0318594E4,2.2735466E3,1.0330059E2,4.3226083E2,5.3558716E2,2.4135072E2,1.8026883E2,1.2325726E3,4.8472515E1,2.6924179E0,1.4635995E1,3.6875129E0,3.5258707E2,1.2353399E4,6.0050648E1,2.0526294E2,1.0214215E4,1.04378586E2,1.0559375E3,1.2176091E3,9.183937E1,1.1461221E1,6.379437E0,4.258814E2,4.09533E2,1.26054184E2,2.3599138E2,5.3593493E0,5.2539604E1,1.27729225E2,4.80651E0,1.2277661E3,4.4327282E1,4.145235E0,1.3534832E0,1.3389348E0,1.2066115E1,2.56988E0,9.3124E1,2.5946304E2,1.8366013E1,4.1684635E1,9.675845E1,7.6201305E0,3.394576E2,7.164799E2,9.57497E2,2.601121E2,7.837328E1,1.3466092E1,3.3652034E0,3.0142334E0,4.886366E0,4.2099503E2,1.0639091E2,3.031421E2,2.4013357E1,1.02040825E2,1.2231814E1,2.2375957E2,2.0136116E0,3.345738E0,2.9583376E1,2.295623E1,1.2239473E2,5.3344936E0,3.4924574E0,1.3140525E0,1.1203604E3,1.0740579E2,1.0773915E0,3.067844E0,2.6774032E0,9.388712E0,6.372477E1,2.939923E1,1.3499893E1,4.866119E0,4.059354E1,1.0910932E0],"tree_param":{"num_deleted":"0","num_feature":"21","num_nodes":"95","size_leaf_vector":"1"}},{"base_weights":[-2.8896484E-1,-1.5847424E-1,6.2072635E-1,3.59481E-1,6.290076E-1,1.533504E-1,5.094773E-1,5.0681496E-1,6.3188744E-1,3.334797E-1,-2.1437488E-1,6.103098E-1,1.1456502E-1,3.586731E-1,1.9161087E-1,1.8964392E-1,3.1865433E-1,-1.2668145E-1,5.835695E-1,-3.4235704E-1,1.3571146E-1,6.322383E-1,1.4253888E-1,4.7083464E-1,-4.0214673E-1,-3.0090988E-1,4.4764668E-1,1.4278017E-1,-3.4145862E-2,-1.2271577E-1,7.135548E-2,5.3280268E-2,2.1220142E-1,-1.3412702E-1,1.2776308E-1,1.923412E-1,5.498183E-2,-1.01591915E-1,1.565907E-1,1.6635847E-1,2.1031883E-3,4.3213975E-2,-1.7154759E-1,4.2657144E-2,-1.6898203E-1,-1.096094E-2,1.711039E-1],"categories":[],"categories_nodes":[],"categories_segments":[],"categories_sizes":[],"default_left":[0,0,0,0,0,0,0,0,0,0,0,0,0,0,0,0,0,0,0,0,0,0,0,0,0,0,0,0,0,0,0,0,0,0,0,0,0,0,0,0,0,0,0,0,0,0,0],"id":25,"left_children":[1,-1,3,5,7,9,11,13,15,17,19,21,23,25,-1,-1,27,29,31,33,-1,35,37,39,41,43,45,-1,-1,-1,-1,-1,-1,-1,-1,-1,-1,-1,-1,-1,-1,-1,-1,-1,-1,-1,-1],"loss_changes":[3.8680525E3,0E0,7.7803955E0,3.509799E0,9.416504E-1,3.4037104E0,2.5875397E0,1.4827976E0,8.227539E-2,4.0048437E0,1.6182301E0,4.5282745E-1,2.9147937E0,2.6902647E0,0E0,0E0,3.8790366E-1,1.4198924E0,9.9529696E-1,1.3938061E0,0E0,8.3343506E-2,8.4522176E-1,3.5416746E-1,6.923156E-1,7.513385E-1,2.3242974E0,0E0,0E0,0E0,0E0,0E0,0E0,0E0,0E0,0E0,0E0,0E0,0E0,0E0,0E0,0E0,0E0,0E0,0E0,0E0,0E0],"parents":[2147483647,0,0,2,2,3,3,4,4,5,5,6,6,7,7,8,8,9,9,10,10,11,11,12,12,13,13,16,16,17,17,18,18,19,19,21,21,22,22,23,23,24,24,25,25,26,26],"right_children":[2,-1,4,6,8,10,12,14,16,18,20,22,24,26,-1,-1,28,30,32,34,-1,36,38,40,42,44,46,-1,-1,-1,-1,-1,-1,-1,-1,-1,-1,-1,-1,-1,-1,-1,-1,-1,-1,-1,-1],"split_conditions":[1E0,-1.5847424E-1,3.875E0,3E0,3.3333334E-1,4.99E2,6E0,1E0,9.1E1,1E0,1E0,8.22E2,6.55E1,6.5E1,1.9161087E-1,1.8964392E-1,7.3333335E0,1.25E0,4.1E1,5.138889E-1,1.3571146E-1,2.60688E3,2.27E2,2.80087E3,9.2242E2,6.15E2,3E0,1.4278017E-1,-3.4145862E-2,-1.2271577E-1,7.135548E-2,5.3280268E-2,2.1220142E-1,-1.3412702E-1,1.2776308E-1,1.923412E-1,5.498183E-2,-1.01591915E-1,1.565907E-1,1.6635847E-1,2.1031883E-3,4.3213975E-2,-1.7154759E-1,4.2657144E-2,-1.6898203E-1,-1.096094E-2,1.711039E-1],"split_indices":[18,0,5,1,9,10,1,11,1,19,11,7,8,10,0,0,8,5,7,9,0,3,8,3,3,7,1,0,0,0,0,0,0,0,0,0,0,0,0,0,0,0,0,0,0,0,0],"split_type":[0,0,0,0,0,0,0,0,0,0,0,0,0,0,0,0,0,0,0,0,0,0,0,0,0,0,0,0,0,0,0,0,0,0,0,0,0,0,0,0,0,0,0,0,0,0,0],"sum_hessian":[1.7767486E4,1.4067603E4,3.699883E3,1.1504348E2,3.5848396E3,4.93067E1,6.573678E1,8.661757E1,3.4982222E3,3.3157642E1,1.614906E1,5.193169E1,1.3805087E1,4.2546806E1,4.407076E1,3.4943157E3,3.9064484E0,1.1849048E1,2.1308596E1,1.3956609E1,2.1924496E0,4.927036E1,2.66133E0,8.22369E0,5.5813975E0,4.7739944E0,3.777281E1,2.7909577E0,1.1154907E0,6.608166E0,5.240882E0,5.547473E0,1.5761124E1,1.2650061E1,1.3065488E0,4.7893036E1,1.3773235E0,1.2207395E0,1.4405904E0,6.8009515E0,1.4227386E0,1.3587284E0,4.222669E0,1.9458051E0,2.8281891E0,7.7788897E0,2.9993921E1],"tree_param":{"num_deleted":"0","num_feature":"21","num_nodes":"47","size_leaf_vector":"1"}},{"base_weights":[-1.9107217E-1,1.4522798E-1,-5.098918E-1,-5.2231777E-1,4.21577E-1,-5.222874E-1,-3.530976E-1,-1.5820281E-1,-2.8057325E-1,4.6419075E-1,-4.3108216E-1,-1.580754E-1,-4.832876E-1,-1.5219367E-1,-1.5788443E-1,-4.956744E-1,3.7446925E-1,2.1099162E-1,5.628729E-1,2.8505458E-2,-5.03503E-1,-2.5769985E-1,-5.1198035E-1,2.9517552E-1,-4.2278E-1,-1.5490423E-1,5.6525704E-2,-1.3257736E-1,5.592929E-1,-1.8861422E-1,3.924668E-1,1.7033924E-1,5.850294E-1,-4.554666E-1,2.9826352E-1,-5.134215E-1,2.5348006E-2,4.8811045E-1,-1.564703E-1,-4.406531E-1,-1.5768549E-1,-9.939608E-2,6.1457926E-1,-5.0550413E-1,-7.542522E-2,1.2987913E-1,-1.3520488E-1,-5.422303E-3,2.2539097E-1,3.5100844E-2,-1.4220883E-1,3.1880155E-2,1.5460256E-1,-3.1269E-2,1.718028E-1,1.2749861E-1,1.8684581E-1,-1.5248255E-1,5.371161E-2,-4.254133E-2,1.6549248E-1,-1.5509827E-1,5.467197E-2,1.4794491E-1,-1.1868009E-1,-1.1441421E-2,6.234504E-1,-4.9020436E-2,-1.5700603E-1,1.701415E-1,-1.08280346E-1,2.091627E-1,-1.4598483E-1,-1.5636666E-1,-7.931802E-2,1.1857434E-1,-1.10836595E-1],"categories":[],"categories_nodes":[],"categories_segments":[],"categories_sizes":[],"default_left":[0,0,0,0,0,0,0,0,0,0,0,0,0,0,0,0,0,0,0,0,0,0,0,0,0,0,0,0,0,0,0,0,0,0,0,0,0,0,0,0,0,0,0,0,0,0,0,0,0,0,0,0,0,0,0,0,0,0,0,0,0,0,0,0,0,0,0,0,0,0,0,0,0,0,0,0,0],"id":26,"left_children":[1,3,5,7,9,11,13,-1,15,17,19,-1,21,23,-1,25,27,29,31,33,35,37,39,41,43,-1,-1,45,47,49,51,53,55,57,59,61,63,65,-1,67,-1,69,71,73,75,-1,-1,-1,-1,-1,-1,-1,-1,-1,-1,-1,-1,-1,-1,-1,-1,-1,-1,-1,-1,-1,-1,-1,-1,-1,-1,-1,-1,-1,-1,-1,-1],"loss_changes":[2.1231826E3,1.7780837E3,1.9572266E1,3.2800903E0,2.4787244E2,1.4462891E0,2.5939568E1,0E0,8.583489E0,1.6210144E2,1.0830486E1,0E0,6.416321E0,4.2204506E1,0E0,7.3790836E-1,1.5082817E0,1.3222711E2,4.052527E1,6.034782E0,1.4858322E0,2.3116152E1,6.4045715E-1,1.6646355E1,6.1977615E0,0E0,0E0,1.0759392E0,1.2781441E0,4.9757996E1,4.402797E1,2.778534E1,2.6472656E1,6.461072E-1,3.3805866E0,7.7936554E-1,1.4006406E0,2.591529E1,0E0,3.3557568E0,0E0,1.0617691E1,6.969528E0,5.257759E-1,6.0854974E0,0E0,0E0,0E0,0E0,0E0,0E0,0E0,0E0,0E0,0E0,0E0,0E0,0E0,0E0,0E0,0E0,0E0,0E0,0E0,0E0,0E0,0E0,0E0,0E0,0E0,0E0,0E0,0E0,0E0,0E0,0E0,0E0],"parents":[2147483647,0,0,1,1,2,2,3,3,4,4,5,5,6,6,8,8,9,9,10,10,12,12,13,13,15,15,16,16,17,17,18,18,19,19,20,20,21,21,22,22,23,23,24,24,27,27,28,28,29,29,30,30,31,31,32,32,33,33,34,34,35,35,36,36,37,37,39,39,41,41,42,42,43,43,44,44],"right_children":[2,4,6,8,10,12,14,-1,16,18,20,-1,22,24,-1,26,28,30,32,34,36,38,40,42,44,-1,-1,46,48,50,52,54,56,58,60,62,64,66,-1,68,-1,70,72,74,76,-1,-1,-1,-1,-1,-1,-1,-1,-1,-1,-1,-1,-1,-1,-1,-1,-1,-1,-1,-1,-1,-1,-1,-1,-1,-1,-1,-1,-1,-1,-1,-1],"split_conditions":[1E0,3E0,7.18E2,8.22E2,1E0,4.26E2,1E0,-1.5820281E-1,1E0,6E1,3.3333334E-1,-1.580754E-1,1.6666667E-1,6.25E-1,-1.5788443E-1,3.49E2,3.875E0,4E0,1.37758E3,3.62E2,2.23296E4,1E0,4.6666667E-1,8E0,1.776E4,-1.5490423E-1,5.6525704E-2,4.1E1,5.3846154E0,2.89E2,1E0,4.33E2,1E0,3.87827E3,5E0,7.9526E2,8.4E1,9E0,-1.564703E-1,1E0,-1.5768549E-1,3.5E0,1E0,9.73E2,7E1,1.2987913E-1,-1.3520488E-1,-5.422303E-3,2.2539097E-1,3.5100844E-2,-1.4220883E-1,3.1880155E-2,1.5460256E-1,-3.1269E-2,1.718028E-1,1.2749861E-1,1.8684581E-1,-1.5248255E-1,5.371161E-2,-4.254133E-2,1.6549248E-1,-1.5509827E-1,5.467197E-2,1.4794491E-1,-1.1868009E-1,-1.1441421E-2,6.234504E-1,-4.9020436E-2,-1.5700603E-1,1.701415E-1,-1.08280346E-1,2.091627E-1,-1.4598483E-1,-1.5636666E-1,-7.931802E-2,1.1857434E-1,-1.10836595E-1],"split_indices":[11,1,7,7,18,7,17,0,17,7,9,0,9,9,0,5,5,1,3,7,3,17,9,1,3,0,0,10,4,10,19,7,19,3,1,2,5,1,0,17,0,5,18,7,5,0,0,0,0,0,0,0,0,0,0,0,0,0,0,0,0,0,0,0,0,0,0,0,0,0,0,0,0,0,0,0,0],"split_type":[0,0,0,0,0,0,0,0,0,0,0,0,0,0,0,0,0,0,0,0,0,0,0,0,0,0,0,0,0,0,0,0,0,0,0,0,0,0,0,0,0,0,0,0,0,0,0,0,0,0,0,0,0,0,0,0,0,0,0,0,0,0,0,0,0,0,0,0,0,0,0,0,0,0,0,0,0],"sum_hessian":[1.980059E4,9.636391E3,1.0164199E4,2.8210361E3,6.815355E3,9.417364E3,7.4683496E2,2.7624348E3,5.860149E1,6.491387E3,3.2396753E2,8.406694E3,1.0106697E3,3.4661682E2,4.0021814E2,4.429824E1,1.4303248E1,1.8213351E3,4.6700522E3,4.418338E1,2.7978415E2,1.1516928E2,8.955004E2,1.3060027E2,2.1601654E2,4.3236855E1,1.0613878E0,3.8964314E0,1.04068165E1,5.688019E2,1.2525332E3,2.4998059E2,4.420072E3,1.5566731E1,2.8616648E1,2.7466214E2,5.122022E0,2.9876078E1,8.5293205E1,1.4908513E2,7.464153E2,5.8733433E1,7.1866844E1,1.7409882E2,4.191773E1,1.2727873E0,2.6236444E0,2.8232586E0,7.583558E0,2.749649E2,2.93837E2,3.7678732E2,8.7574585E2,1.4902289E2,1.009577E2,8.466976E2,3.573374E3,1.4554346E1,1.0123852E0,1.0617126E1,1.7999521E1,2.7351425E2,1.1478683E0,2.3447597E0,2.7772624E0,2.3180296E1,6.6957808E0,3.4936573E1,1.1414855E2,1.622227E1,4.251116E1,6.719187E1,4.6749706E0,1.6235324E2,1.1745571E1,1.59851E1,2.5932627E1],"tree_param":{"num_deleted":"0","num_feature":"21","num_nodes":"77","size_leaf_vector":"1"}},{"base_weights":[2.8524047E-1,-1.5846086E-1,5.8499974E-1,-2.0059305E-1,1.8948163E-1,-4.658228E-1,6.581598E-2,-1.5978594E-1,-2.6534724E-1,-1.5731615E-1,2.8512105E-1,6.8118446E-2,-5.0821555E-1,4.1217005E-1,-4.5166993E-1,-1.0709791E-1,8.0702685E-2,-1.5844819E-1,-4.8284046E-2,3.4259204E-2,1.9398168E-1,-1.5003084E-1,7.57484E-2],"categories":[],"categories_nodes":[],"categories_segments":[],"categories_sizes":[],"default_left":[0,0,0,0,0,0,0,0,0,0,0,0,0,0,0,0,0,0,0,0,0,0,0],"id":27,"left_children":[1,-1,3,5,-1,7,9,-1,11,-1,13,15,17,19,21,-1,-1,-1,-1,-1,-1,-1,-1],"loss_changes":[7.324777E3,0E0,8.037925E2,8.694467E1,0E0,8.11441E0,7.969107E1,0E0,1.2674525E1,0E0,4.218789E1,5.788034E0,5.412731E-1,2.6696587E1,2.3931742E0,0E0,0E0,0E0,0E0,0E0,0E0,0E0,0E0],"parents":[2147483647,0,0,2,2,3,3,5,5,6,6,8,8,10,10,11,11,12,12,13,13,14,14],"right_children":[2,-1,4,6,-1,8,10,-1,12,-1,14,16,18,20,22,-1,-1,-1,-1,-1,-1,-1,-1],"split_conditions":[1E0,-1.5846086E-1,1E0,1E0,1.8948163E-1,6.666667E-1,3E0,-1.5978594E-1,2.4E1,-1.5731615E-1,1.16E2,6.25E0,8.09E2,4.49E2,7.56E2,-1.0709791E-1,8.0702685E-2,-1.5844819E-1,-4.8284046E-2,3.4259204E-2,1.9398168E-1,-1.5003084E-1,7.57484E-2],"split_indices":[17,0,11,9,0,9,1,0,7,0,7,4,10,10,10,0,0,0,0,0,0,0,0],"split_type":[0,0,0,0,0,0,0,0,0,0,0,0,0,0,0,0,0,0,0,0,0,0,0],"sum_hessian":[3.003736E4,8.088149E3,2.194921E4,1.2290383E3,2.0720172E4,6.155072E2,6.135311E2,4.6043634E2,1.5507088E2,1.6583577E2,4.4769537E2,6.565039E1,8.942048E1,3.822265E2,6.5468864E1,2.0818523E1,4.4831867E1,8.4071045E1,5.3494353E0,1.6896075E2,2.1326575E2,6.1526806E1,3.9420567E0],"tree_param":{"num_deleted":"0","num_feature":"21","num_nodes":"23","size_leaf_vector":"1"}},{"base_weights":[1.7710922E-2,2.6399553E-1,-1.5843916E-1,-1.5849039E-1,5.601085E-1,6.1652535E-1,-1.5797782E-1,5.2484524E-1,6.283643E-1,5.8173496E-1,2.2124144E-1,6.301088E-1,3.7929636E-1,1.2679558E-1,1.9002266E-1,1.2729973E-1,-1.4675899E-1,1.8930444E-1,1.6573721E-1,2.622584E-2,1.759959E-1],"categories":[],"categories_nodes":[],"categories_segments":[],"categories_sizes":[],"default_left":[0,0,0,0,0,0,0,0,0,0,0,0,0,0,0,0,0,0,0,0,0],"id":28,"left_children":[1,3,-1,-1,5,7,-1,9,11,13,15,17,19,-1,-1,-1,-1,-1,-1,-1,-1],"loss_changes":[3.0651597E3,3.6863833E3,0E0,0E0,7.015427E2,1.1473145E1,0E0,2.1454773E1,3.942627E0,8.378662E0,2.8893787E1,3.2348633E-1,4.1524E0,0E0,0E0,0E0,0E0,0E0,0E0,0E0,0E0],"parents":[2147483647,0,0,1,1,4,4,5,5,7,7,8,8,9,9,10,10,11,11,12,12],"right_children":[2,4,-1,-1,6,8,-1,10,12,14,16,18,20,-1,-1,-1,-1,-1,-1,-1,-1],"split_conditions":[1E0,1E0,-1.5843916E-1,-1.5849039E-1,1E0,5E-1,-1.5797782E-1,4.26E2,9.32E2,1E0,1E1,8.55E2,8.181818E-1,1.2679558E-1,1.9002266E-1,1.2729973E-1,-1.4675899E-1,1.8930444E-1,1.6573721E-1,2.622584E-2,1.759959E-1],"split_indices":[17,11,0,0,18,9,0,7,7,19,1,7,9,0,0,0,0,0,0,0,0],"split_type":[0,0,0,0,0,0,0,0,0,0,0,0,0,0,0,0,0,0,0,0,0],"sum_hessian":[2.2798727E4,1.5710595E4,7.0881313E3,4.274013E3,1.1436581E4,1.0872558E4,5.640239E2,1.2486285E3,9.623929E3,1.0508103E3,1.9781827E2,9.555473E3,6.845645E1,2.598909E2,7.909194E2,1.5415353E2,4.366473E1,9.438228E3,1.1724506E2,2.902384E1,3.943261E1],"tree_param":{"num_deleted":"0","num_feature":"21","num_nodes":"21","size_leaf_vector":"1"}},{"base_weights":[-2.3501874E-3,4.022843E-1,-5.2073103E-1,5.227629E-1,-3.3530602E-1,-2.0049252E-1,-5.225549E-1,5.5655086E-1,-3.2300916E-1,-1.163111E-1,-5.219125E-1,2.5799507E-1,-1.5487844E-1,-5.244992E-1,-4.2900053E-1,6.303733E-1,2.6082185E-1,3.774022E-1,-5.136377E-1,2.3057042E-1,-3.4281895E-1,-1.5767042E-1,-1.5668817E-1,6.034817E-1,-1.4286289E-1,-4.577349E-1,-1.5791994E-1,-1.2254589E-1,-1.5730861E-1,1.8944995E-1,5.6331056E-1,3.5622022E-1,-4.0128002E-1,4.7647196E-1,-1.4349101E-1,-1.06583305E-1,-1.5783817E-1,-1.9156528E-1,6.7506164E-1,-4.984618E-1,1.5907006E-1,-1.4311452E-1,5.789877E-1,7.975407E-1,-1.14884354E-1,-2.7589196E-1,-1.5788446E-1,5.471771E-1,-4.8611727E-1,1.8641643E-1,1.3017874E-2,2.1439533E-1,7.31589E-2,-3.4584086E-2,-1.6001853E-1,6.976564E-2,1.8959583E-1,-1.3726671E-1,7.884197E-2,-9.224689E-2,2.3701106E-1,2.5740135E-1,-7.770911E-2,-1.577092E-1,-8.903605E-2,3.3309168E-1,-4.0950626E-2,3.197884E-1,-4.2914525E-3,1.8912684E-2,2.5670063E-1,5.4547094E-2,-1.5636438E-1,2.5499645E-1,-1.2852617E-1,-1.5394609E-1,5.7044726E-2],"categories":[],"categories_nodes":[],"categories_segments":[],"categories_sizes":[],"default_left":[0,0,0,0,0,0,0,0,0,0,0,0,0,0,0,0,0,0,0,0,0,0,0,0,0,0,0,0,0,0,0,0,0,0,0,0,0,0,0,0,0,0,0,0,0,0,0,0,0,0,0,0,0,0,0,0,0,0,0,0,0,0,0,0,0,0,0,0,0,0,0,0,0,0,0,0,0],"id":29,"left_children":[1,3,5,7,9,11,13,15,17,19,21,23,-1,25,27,29,31,33,35,37,39,-1,41,43,-1,45,-1,47,-1,-1,49,51,53,55,-1,57,-1,59,61,63,65,-1,67,69,-1,71,-1,73,75,-1,-1,-1,-1,-1,-1,-1,-1,-1,-1,-1,-1,-1,-1,-1,-1,-1,-1,-1,-1,-1,-1,-1,-1,-1,-1,-1,-1],"loss_changes":[4.816157E3,1.146095E3,5.773926E0,3.1695605E2,7.395497E1,8.620526E0,1.595459E0,2.3254932E2,5.7134163E1,6.5652E1,1.2228394E0,6.5211883E0,0E0,1.0026855E0,6.050827E0,2.8833008E-1,1.3474974E2,8.011317E0,1.650322E0,6.210141E1,3.9549957E1,0E0,2.8952885E0,3.5889063E0,0E0,3.331478E0,0E0,1.2675629E1,0E0,0E0,4.50758E0,7.486235E1,1.0097202E1,2.9934006E0,0E0,1.5782402E0,0E0,1.9607796E1,2.7751976E1,1.9637375E0,3.399274E1,0E0,1.1197611E0,5.718565E-1,0E0,8.904815E0,0E0,5.800772E0,7.112222E-1,0E0,0E0,0E0,0E0,0E0,0E0,0E0,0E0,0E0,0E0,0E0,0E0,0E0,0E0,0E0,0E0,0E0,0E0,0E0,0E0,0E0,0E0,0E0,0E0,0E0,0E0,0E0,0E0],"parents":[2147483647,0,0,1,1,2,2,3,3,4,4,5,5,6,6,7,7,8,8,9,9,10,10,11,11,13,13,14,14,15,15,16,16,17,17,18,18,19,19,20,20,22,22,23,23,25,25,27,27,30,30,31,31,32,32,33,33,35,35,37,37,38,38,39,39,40,40,42,42,43,43,45,45,47,47,48,48],"right_children":[2,4,6,8,10,12,14,16,18,20,22,24,-1,26,28,30,32,34,36,38,40,-1,42,44,-1,46,-1,48,-1,-1,50,52,54,56,-1,58,-1,60,62,64,66,-1,68,70,-1,72,-1,74,76,-1,-1,-1,-1,-1,-1,-1,-1,-1,-1,-1,-1,-1,-1,-1,-1,-1,-1,-1,-1,-1,-1,-1,-1,-1,-1,-1,-1],"split_conditions":[1E0,4E0,6.666667E-1,1E0,5E0,1E0,1E0,3E0,7.692308E-2,1E0,1E0,1E0,-1.5487844E-1,1.75E0,7.692308E-2,8.22E2,4.54E2,3E0,6.8E0,4.29E2,7.97E2,-1.5767042E-1,8.56E2,3E0,-1.4286289E-1,1E0,-1.5791994E-1,1E0,-1.5730861E-1,1.8944995E-1,1E0,1E0,1E0,2.89E2,-1.4349101E-1,5.6968335E2,-1.5783817E-1,1E0,1E0,1E0,7.692308E-2,-1.4311452E-1,2.08017E3,1.94E2,-1.14884354E-1,1E0,-1.5788446E-1,3E0,9.25E1,1.8641643E-1,1.3017874E-2,2.1439533E-1,7.31589E-2,-3.4584086E-2,-1.6001853E-1,6.976564E-2,1.8959583E-1,-1.3726671E-1,7.884197E-2,-9.224689E-2,2.3701106E-1,2.5740135E-1,-7.770911E-2,-1.577092E-1,-8.903605E-2,3.3309168E-1,-4.0950626E-2,3.197884E-1,-4.2914525E-3,1.8912684E-2,2.5670063E-1,5.4547094E-2,-1.5636438E-1,2.5499645E-1,-1.2852617E-1,-1.5394609E-1,5.7044726E-2],"split_indices":[11,1,5,18,1,19,14,1,9,19,20,17,0,5,9,7,7,1,5,10,10,0,10,1,0,19,0,19,0,0,17,19,19,10,0,2,0,14,17,14,9,0,3,10,0,17,0,1,8,0,0,0,0,0,0,0,0,0,0,0,0,0,0,0,0,0,0,0,0,0,0,0,0,0,0,0,0],"split_type":[0,0,0,0,0,0,0,0,0,0,0,0,0,0,0,0,0,0,0,0,0,0,0,0,0,0,0,0,0,0,0,0,0,0,0,0,0,0,0,0,0,0,0,0,0,0,0,0,0,0,0,0,0,0,0,0,0,0,0,0,0,0,0,0,0,0,0,0,0,0,0,0,0,0,0,0,0],"sum_hessian":[2.2958896E4,1.2894227E4,1.0064671E4,1.1084041E4,1.8101852E3,5.7623833E1,1.0007047E4,1.0658581E4,4.2546036E2,8.335653E2,9.766198E2,2.3575638E1,3.4048195E1,9.798798E3,2.0824896E2,8.528493E3,2.130088E3,9.081313E1,3.3464722E2,3.292789E2,5.042864E2,9.66507E2,1.011282E1,1.6152826E1,7.4228115E0,2.7792145E2,9.520876E3,4.9965252E1,1.582837E2,8.37932E3,1.4917287E2,1.8622319E3,2.6785602E2,8.178734E1,9.025793E0,1.0245973E1,3.2440125E2,1.6917834E2,1.6010056E2,3.8492316E2,1.1936327E2,7.2898884E0,2.8229318E0,1.3657493E1,2.4953334E0,7.745936E1,2.004621E2,1.740291E1,3.256234E1,1.3400829E2,1.5164585E1,4.431568E2,1.4190751E3,8.522833E1,1.826277E2,3.2814316E1,4.8973026E1,5.131575E0,5.114398E0,1.5192339E2,1.7254963E1,1.3394815E2,2.6152414E1,3.3771002E2,4.721314E1,2.7643177E1,9.172009E1,1.1128329E0,1.7100987E0,1.154457E0,1.2503036E1,2.7119482E1,5.033987E1,1.3379014E1,4.023896E0,3.1542503E1,1.0198379E0],"tree_param":{"num_deleted":"0","num_feature":"21","num_nodes":"77","size_leaf_vector":"1"}},{"base_weights":[-2.8252733E-1,-1.5636966E-1,5.807401E-1,3.613162E-1,5.9134007E-1,2.4071857E-1,1.8117113E-1,1.8320821E-1,5.916408E-1,-9.3456665E-3,4.1526973E-1,1.3130108E-1,-4.2853978E-2,1.7778236E-1,4.1679582E-1,2.3600754E-1,-1.5034537E-1,5.012552E-1,-1.8659581E-1,-1.2981582E-1,1.6806756E-1,-1.5084052E-1,1.6219914E-1,1.61257E-1,-2.4242414E-2,4.9591143E-2,-1.7390296E-1,1.21753E-1,-2.1696654E-1],"categories":[],"categories_nodes":[],"categories_segments":[],"categories_sizes":[],"default_left":[0,0,0,0,0,0,0,0,0,0,0,0,0,0,0,0,0,0,0,0,0,0,0,0,0,0,0,0,0],"id":30,"left_children":[1,-1,3,5,7,9,-1,11,13,15,17,-1,-1,-1,19,21,-1,23,25,27,-1,-1,-1,-1,-1,-1,-1,-1,-1],"loss_changes":[2.8421147E3,0E0,6.7355957E0,3.9578037E0,2.4121094E-1,4.165558E0,0E0,3.5672846E-1,2.3413086E-1,4.965688E0,3.0005293E0,0E0,0E0,0E0,1.5643196E0,6.4573994E0,0E0,1.0867405E0,1.1679187E0,1.8085847E0,0E0,0E0,0E0,0E0,0E0,0E0,0E0,0E0,0E0],"parents":[2147483647,0,0,2,2,3,3,4,4,5,5,7,7,8,8,9,9,10,10,14,14,15,15,17,17,18,18,19,19],"right_children":[2,-1,4,6,8,10,-1,12,14,16,18,-1,-1,-1,20,22,-1,24,26,28,-1,-1,-1,-1,-1,-1,-1,-1,-1],"split_conditions":[1E0,-1.5636966E-1,1.8181819E-1,1E0,1.5E0,3E0,1.8117113E-1,1.17672E3,9.93E2,4.64E2,2.45948E3,1.3130108E-1,-4.2853978E-2,1.7778236E-1,7E-1,1E0,-1.5034537E-1,8.38E2,7.18E2,1.9E1,1.6806756E-1,-1.5084052E-1,1.6219914E-1,1.61257E-1,-2.4242414E-2,4.9591143E-2,-1.7390296E-1,1.21753E-1,-2.1696654E-1],"split_indices":[18,0,9,11,5,1,0,3,7,10,3,0,0,0,9,19,0,7,7,1,0,0,0,0,0,0,0,0,0],"split_type":[0,0,0,0,0,0,0,0,0,0,0,0,0,0,0,0,0,0,0,0,0,0,0,0,0,0,0,0,0],"sum_hessian":[1.3789776E4,1.0803E4,2.9867761E3,1.3925319E2,2.847523E3,9.4344154E1,4.490904E1,2.5460272E0,2.844977E3,3.9172123E1,5.5172028E1,1.23774E0,1.3082871E0,2.8269517E3,1.802539E1,2.6481222E1,1.26909E1,4.8421467E1,6.7505627E0,3.7664194E0,1.425897E1,7.5417194E0,1.8939503E1,4.5653347E1,2.7681208E0,3.8676093E0,2.8829534E0,2.14565E0,1.6207696E0],"tree_param":{"num_deleted":"0","num_feature":"21","num_nodes":"29","size_leaf_vector":"1"}},{"base_weights":[-1.7693983E-1,1.3451146E-1,-4.9907413E-1,-5.142875E-1,3.7099123E-1,-5.1383066E-1,